digraph Tree {
node [shape=box, style="filled, rounded", color="black", fontname="helvetica"] ;
edge [fontname="helvetica"] ;
0 [label="loudness <= -16.038\ngini = 0.9\nsamples = 9600\nvalue = [976, 964, 951, 973, 963, 968, 960, 930, 957, 958]\nclass = rock", fillcolor="#ffffff"] ;
1 [label="loudness <= -23.862\ngini = 0.454\nsamples = 1117\nvalue = [55, 29, 801, 3, 2, 185, 0, 3, 9, 30]\nclass = dance", fillcolor="#a8ee7c"] ;
0 -> 1 [labeldistance=2.5, labelangle=45, headlabel="True"] ;
2 [label="acousticness <= 0.94\ngini = 0.118\nsamples = 533\nvalue = [3, 2, 500, 0, 1, 25, 0, 1, 0, 1]\nclass = dance", fillcolor="#84e746"] ;
1 -> 2 ;
3 [label="instrumentalness <= 0.785\ngini = 0.379\nsamples = 73\nvalue = [2, 1, 56, 0, 0, 13, 0, 0, 0, 1]\nclass = dance", fillcolor="#a0ec71"] ;
2 -> 3 ;
4 [label="instrumentalness <= 0.0\ngini = 0.195\nsamples = 38\nvalue = [2, 1, 34, 0, 0, 1, 0, 0, 0, 0]\nclass = dance", fillcolor="#8ae84f"] ;
3 -> 4 ;
5 [label="loudness <= -27.245\ngini = 0.5\nsamples = 2\nvalue = [1, 1, 0, 0, 0, 0, 0, 0, 0, 0]\nclass = rock", fillcolor="#ffffff"] ;
4 -> 5 ;
6 [label="gini = 0.0\nsamples = 1\nvalue = [1, 0, 0, 0, 0, 0, 0, 0, 0, 0]\nclass = rock", fillcolor="#e58139"] ;
5 -> 6 ;
7 [label="gini = 0.0\nsamples = 1\nvalue = [0, 1, 0, 0, 0, 0, 0, 0, 0, 0]\nclass = jazz", fillcolor="#e2e539"] ;
5 -> 7 ;
8 [label="acousticness <= 0.936\ngini = 0.106\nsamples = 36\nvalue = [1, 0, 34, 0, 0, 1, 0, 0, 0, 0]\nclass = dance", fillcolor="#83e644"] ;
4 -> 8 ;
9 [label="acousticness <= 0.859\ngini = 0.056\nsamples = 35\nvalue = [0, 0, 34, 0, 0, 1, 0, 0, 0, 0]\nclass = dance", fillcolor="#7fe63f"] ;
8 -> 9 ;
10 [label="acousticness <= 0.83\ngini = 0.198\nsamples = 9\nvalue = [0, 0, 8, 0, 0, 1, 0, 0, 0, 0]\nclass = dance", fillcolor="#8ce852"] ;
9 -> 10 ;
11 [label="gini = 0.0\nsamples = 8\nvalue = [0, 0, 8, 0, 0, 0, 0, 0, 0, 0]\nclass = dance", fillcolor="#7be539"] ;
10 -> 11 ;
12 [label="gini = 0.0\nsamples = 1\nvalue = [0, 0, 0, 0, 0, 1, 0, 0, 0, 0]\nclass = pop", fillcolor="#399de5"] ;
10 -> 12 ;
13 [label="gini = 0.0\nsamples = 26\nvalue = [0, 0, 26, 0, 0, 0, 0, 0, 0, 0]\nclass = dance", fillcolor="#7be539"] ;
9 -> 13 ;
14 [label="gini = 0.0\nsamples = 1\nvalue = [1, 0, 0, 0, 0, 0, 0, 0, 0, 0]\nclass = rock", fillcolor="#e58139"] ;
8 -> 14 ;
15 [label="acousticness <= 0.929\ngini = 0.487\nsamples = 35\nvalue = [0, 0, 22, 0, 0, 12, 0, 0, 0, 1]\nclass = dance", fillcolor="#c6f4a9"] ;
3 -> 15 ;
16 [label="acousticness <= 0.816\ngini = 0.463\nsamples = 33\nvalue = [0, 0, 22, 0, 0, 10, 0, 0, 0, 1]\nclass = dance", fillcolor="#baf198"] ;
15 -> 16 ;
17 [label="acousticness <= 0.698\ngini = 0.571\nsamples = 7\nvalue = [0, 0, 2, 0, 0, 4, 0, 0, 0, 1]\nclass = pop", fillcolor="#b0d8f5"] ;
16 -> 17 ;
18 [label="acousticness <= 0.642\ngini = 0.625\nsamples = 4\nvalue = [0, 0, 2, 0, 0, 1, 0, 0, 0, 1]\nclass = dance", fillcolor="#d3f6bd"] ;
17 -> 18 ;
19 [label="loudness <= -26.246\ngini = 0.5\nsamples = 2\nvalue = [0, 0, 0, 0, 0, 1, 0, 0, 0, 1]\nclass = pop", fillcolor="#ffffff"] ;
18 -> 19 ;
20 [label="gini = 0.0\nsamples = 1\nvalue = [0, 0, 0, 0, 0, 1, 0, 0, 0, 0]\nclass = pop", fillcolor="#399de5"] ;
19 -> 20 ;
21 [label="gini = 0.0\nsamples = 1\nvalue = [0, 0, 0, 0, 0, 0, 0, 0, 0, 1]\nclass = classical", fillcolor="#e53958"] ;
19 -> 21 ;
22 [label="gini = 0.0\nsamples = 2\nvalue = [0, 0, 2, 0, 0, 0, 0, 0, 0, 0]\nclass = dance", fillcolor="#7be539"] ;
18 -> 22 ;
23 [label="gini = 0.0\nsamples = 3\nvalue = [0, 0, 0, 0, 0, 3, 0, 0, 0, 0]\nclass = pop", fillcolor="#399de5"] ;
17 -> 23 ;
24 [label="energy <= 0.009\ngini = 0.355\nsamples = 26\nvalue = [0, 0, 20, 0, 0, 6, 0, 0, 0, 0]\nclass = dance", fillcolor="#a3ed74"] ;
16 -> 24 ;
25 [label="acousticness <= 0.919\ngini = 0.48\nsamples = 5\nvalue = [0, 0, 2, 0, 0, 3, 0, 0, 0, 0]\nclass = pop", fillcolor="#bddef6"] ;
24 -> 25 ;
26 [label="gini = 0.0\nsamples = 2\nvalue = [0, 0, 2, 0, 0, 0, 0, 0, 0, 0]\nclass = dance", fillcolor="#7be539"] ;
25 -> 26 ;
27 [label="gini = 0.0\nsamples = 3\nvalue = [0, 0, 0, 0, 0, 3, 0, 0, 0, 0]\nclass = pop", fillcolor="#399de5"] ;
25 -> 27 ;
28 [label="energy <= 0.11\ngini = 0.245\nsamples = 21\nvalue = [0, 0, 18, 0, 0, 3, 0, 0, 0, 0]\nclass = dance", fillcolor="#91e95a"] ;
24 -> 28 ;
29 [label="loudness <= -24.998\ngini = 0.111\nsamples = 17\nvalue = [0, 0, 16, 0, 0, 1, 0, 0, 0, 0]\nclass = dance", fillcolor="#83e745"] ;
28 -> 29 ;
30 [label="gini = 0.0\nsamples = 13\nvalue = [0, 0, 13, 0, 0, 0, 0, 0, 0, 0]\nclass = dance", fillcolor="#7be539"] ;
29 -> 30 ;
31 [label="loudness <= -24.54\ngini = 0.375\nsamples = 4\nvalue = [0, 0, 3, 0, 0, 1, 0, 0, 0, 0]\nclass = dance", fillcolor="#a7ee7b"] ;
29 -> 31 ;
32 [label="gini = 0.0\nsamples = 1\nvalue = [0, 0, 0, 0, 0, 1, 0, 0, 0, 0]\nclass = pop", fillcolor="#399de5"] ;
31 -> 32 ;
33 [label="gini = 0.0\nsamples = 3\nvalue = [0, 0, 3, 0, 0, 0, 0, 0, 0, 0]\nclass = dance", fillcolor="#7be539"] ;
31 -> 33 ;
34 [label="energy <= 0.13\ngini = 0.5\nsamples = 4\nvalue = [0, 0, 2, 0, 0, 2, 0, 0, 0, 0]\nclass = dance", fillcolor="#ffffff"] ;
28 -> 34 ;
35 [label="gini = 0.0\nsamples = 2\nvalue = [0, 0, 0, 0, 0, 2, 0, 0, 0, 0]\nclass = pop", fillcolor="#399de5"] ;
34 -> 35 ;
36 [label="gini = 0.0\nsamples = 2\nvalue = [0, 0, 2, 0, 0, 0, 0, 0, 0, 0]\nclass = dance", fillcolor="#7be539"] ;
34 -> 36 ;
37 [label="gini = 0.0\nsamples = 2\nvalue = [0, 0, 0, 0, 0, 2, 0, 0, 0, 0]\nclass = pop", fillcolor="#399de5"] ;
15 -> 37 ;
38 [label="instrumentalness <= 0.0\ngini = 0.068\nsamples = 460\nvalue = [1, 1, 444, 0, 1, 12, 0, 1, 0, 0]\nclass = dance", fillcolor="#80e640"] ;
2 -> 38 ;
39 [label="gini = 0.0\nsamples = 1\nvalue = [0, 0, 0, 0, 0, 0, 0, 1, 0, 0]\nclass = metal", fillcolor="#a339e5"] ;
38 -> 39 ;
40 [label="loudness <= -30.604\ngini = 0.064\nsamples = 459\nvalue = [1, 1, 444, 0, 1, 12, 0, 0, 0, 0]\nclass = dance", fillcolor="#7fe640"] ;
38 -> 40 ;
41 [label="gini = 0.0\nsamples = 185\nvalue = [0, 0, 185, 0, 0, 0, 0, 0, 0, 0]\nclass = dance", fillcolor="#7be539"] ;
40 -> 41 ;
42 [label="loudness <= -30.601\ngini = 0.105\nsamples = 274\nvalue = [1, 1, 259, 0, 1, 12, 0, 0, 0, 0]\nclass = dance", fillcolor="#83e644"] ;
40 -> 42 ;
43 [label="gini = 0.0\nsamples = 1\nvalue = [0, 0, 0, 0, 0, 1, 0, 0, 0, 0]\nclass = pop", fillcolor="#399de5"] ;
42 -> 43 ;
44 [label="loudness <= -29.385\ngini = 0.098\nsamples = 273\nvalue = [1, 1, 259, 0, 1, 11, 0, 0, 0, 0]\nclass = dance", fillcolor="#82e644"] ;
42 -> 44 ;
45 [label="acousticness <= 0.995\ngini = 0.214\nsamples = 42\nvalue = [0, 0, 37, 0, 1, 4, 0, 0, 0, 0]\nclass = dance", fillcolor="#8ce853"] ;
44 -> 45 ;
46 [label="loudness <= -29.402\ngini = 0.176\nsamples = 41\nvalue = [0, 0, 37, 0, 0, 4, 0, 0, 0, 0]\nclass = dance", fillcolor="#89e84e"] ;
45 -> 46 ;
47 [label="loudness <= -30.04\ngini = 0.139\nsamples = 40\nvalue = [0, 0, 37, 0, 0, 3, 0, 0, 0, 0]\nclass = dance", fillcolor="#86e749"] ;
46 -> 47 ;
48 [label="gini = 0.0\nsamples = 23\nvalue = [0, 0, 23, 0, 0, 0, 0, 0, 0, 0]\nclass = dance", fillcolor="#7be539"] ;
47 -> 48 ;
49 [label="loudness <= -30.013\ngini = 0.291\nsamples = 17\nvalue = [0, 0, 14, 0, 0, 3, 0, 0, 0, 0]\nclass = dance", fillcolor="#97eb63"] ;
47 -> 49 ;
50 [label="gini = 0.0\nsamples = 2\nvalue = [0, 0, 0, 0, 0, 2, 0, 0, 0, 0]\nclass = pop", fillcolor="#399de5"] ;
49 -> 50 ;
51 [label="energy <= 0.044\ngini = 0.124\nsamples = 15\nvalue = [0, 0, 14, 0, 0, 1, 0, 0, 0, 0]\nclass = dance", fillcolor="#84e747"] ;
49 -> 51 ;
52 [label="gini = 0.0\nsamples = 13\nvalue = [0, 0, 13, 0, 0, 0, 0, 0, 0, 0]\nclass = dance", fillcolor="#7be539"] ;
51 -> 52 ;
53 [label="acousticness <= 0.983\ngini = 0.5\nsamples = 2\nvalue = [0, 0, 1, 0, 0, 1, 0, 0, 0, 0]\nclass = dance", fillcolor="#ffffff"] ;
51 -> 53 ;
54 [label="gini = 0.0\nsamples = 1\nvalue = [0, 0, 0, 0, 0, 1, 0, 0, 0, 0]\nclass = pop", fillcolor="#399de5"] ;
53 -> 54 ;
55 [label="gini = 0.0\nsamples = 1\nvalue = [0, 0, 1, 0, 0, 0, 0, 0, 0, 0]\nclass = dance", fillcolor="#7be539"] ;
53 -> 55 ;
56 [label="gini = 0.0\nsamples = 1\nvalue = [0, 0, 0, 0, 0, 1, 0, 0, 0, 0]\nclass = pop", fillcolor="#399de5"] ;
46 -> 56 ;
57 [label="gini = 0.0\nsamples = 1\nvalue = [0, 0, 0, 0, 1, 0, 0, 0, 0, 0]\nclass = blues", fillcolor="#39e5c5"] ;
45 -> 57 ;
58 [label="instrumentalness <= 0.114\ngini = 0.075\nsamples = 231\nvalue = [1, 1, 222, 0, 0, 7, 0, 0, 0, 0]\nclass = dance", fillcolor="#80e641"] ;
44 -> 58 ;
59 [label="instrumentalness <= 0.067\ngini = 0.34\nsamples = 10\nvalue = [1, 1, 8, 0, 0, 0, 0, 0, 0, 0]\nclass = dance", fillcolor="#98eb65"] ;
58 -> 59 ;
60 [label="acousticness <= 0.947\ngini = 0.198\nsamples = 9\nvalue = [1, 0, 8, 0, 0, 0, 0, 0, 0, 0]\nclass = dance", fillcolor="#8ce852"] ;
59 -> 60 ;
61 [label="gini = 0.0\nsamples = 1\nvalue = [1, 0, 0, 0, 0, 0, 0, 0, 0, 0]\nclass = rock", fillcolor="#e58139"] ;
60 -> 61 ;
62 [label="gini = 0.0\nsamples = 8\nvalue = [0, 0, 8, 0, 0, 0, 0, 0, 0, 0]\nclass = dance", fillcolor="#7be539"] ;
60 -> 62 ;
63 [label="gini = 0.0\nsamples = 1\nvalue = [0, 1, 0, 0, 0, 0, 0, 0, 0, 0]\nclass = jazz", fillcolor="#e2e539"] ;
59 -> 63 ;
64 [label="instrumentalness <= 0.972\ngini = 0.061\nsamples = 221\nvalue = [0, 0, 214, 0, 0, 7, 0, 0, 0, 0]\nclass = dance", fillcolor="#7fe63f"] ;
58 -> 64 ;
65 [label="energy <= 0.058\ngini = 0.054\nsamples = 216\nvalue = [0, 0, 210, 0, 0, 6, 0, 0, 0, 0]\nclass = dance", fillcolor="#7fe63f"] ;
64 -> 65 ;
66 [label="acousticness <= 0.956\ngini = 0.025\nsamples = 155\nvalue = [0, 0, 153, 0, 0, 2, 0, 0, 0, 0]\nclass = dance", fillcolor="#7de53c"] ;
65 -> 66 ;
67 [label="acousticness <= 0.955\ngini = 0.245\nsamples = 7\nvalue = [0, 0, 6, 0, 0, 1, 0, 0, 0, 0]\nclass = dance", fillcolor="#91e95a"] ;
66 -> 67 ;
68 [label="gini = 0.0\nsamples = 6\nvalue = [0, 0, 6, 0, 0, 0, 0, 0, 0, 0]\nclass = dance", fillcolor="#7be539"] ;
67 -> 68 ;
69 [label="gini = 0.0\nsamples = 1\nvalue = [0, 0, 0, 0, 0, 1, 0, 0, 0, 0]\nclass = pop", fillcolor="#399de5"] ;
67 -> 69 ;
70 [label="acousticness <= 0.995\ngini = 0.013\nsamples = 148\nvalue = [0, 0, 147, 0, 0, 1, 0, 0, 0, 0]\nclass = dance", fillcolor="#7ce53a"] ;
66 -> 70 ;
71 [label="gini = 0.0\nsamples = 125\nvalue = [0, 0, 125, 0, 0, 0, 0, 0, 0, 0]\nclass = dance", fillcolor="#7be539"] ;
70 -> 71 ;
72 [label="instrumentalness <= 0.929\ngini = 0.083\nsamples = 23\nvalue = [0, 0, 22, 0, 0, 1, 0, 0, 0, 0]\nclass = dance", fillcolor="#81e642"] ;
70 -> 72 ;
73 [label="gini = 0.0\nsamples = 15\nvalue = [0, 0, 15, 0, 0, 0, 0, 0, 0, 0]\nclass = dance", fillcolor="#7be539"] ;
72 -> 73 ;
74 [label="instrumentalness <= 0.932\ngini = 0.219\nsamples = 8\nvalue = [0, 0, 7, 0, 0, 1, 0, 0, 0, 0]\nclass = dance", fillcolor="#8ee955"] ;
72 -> 74 ;
75 [label="gini = 0.0\nsamples = 1\nvalue = [0, 0, 0, 0, 0, 1, 0, 0, 0, 0]\nclass = pop", fillcolor="#399de5"] ;
74 -> 75 ;
76 [label="gini = 0.0\nsamples = 7\nvalue = [0, 0, 7, 0, 0, 0, 0, 0, 0, 0]\nclass = dance", fillcolor="#7be539"] ;
74 -> 76 ;
77 [label="energy <= 0.062\ngini = 0.123\nsamples = 61\nvalue = [0, 0, 57, 0, 0, 4, 0, 0, 0, 0]\nclass = dance", fillcolor="#84e747"] ;
65 -> 77 ;
78 [label="acousticness <= 0.987\ngini = 0.5\nsamples = 4\nvalue = [0, 0, 2, 0, 0, 2, 0, 0, 0, 0]\nclass = dance", fillcolor="#ffffff"] ;
77 -> 78 ;
79 [label="gini = 0.0\nsamples = 2\nvalue = [0, 0, 2, 0, 0, 0, 0, 0, 0, 0]\nclass = dance", fillcolor="#7be539"] ;
78 -> 79 ;
80 [label="gini = 0.0\nsamples = 2\nvalue = [0, 0, 0, 0, 0, 2, 0, 0, 0, 0]\nclass = pop", fillcolor="#399de5"] ;
78 -> 80 ;
81 [label="loudness <= -26.387\ngini = 0.068\nsamples = 57\nvalue = [0, 0, 55, 0, 0, 2, 0, 0, 0, 0]\nclass = dance", fillcolor="#80e640"] ;
77 -> 81 ;
82 [label="instrumentalness <= 0.712\ngini = 0.298\nsamples = 11\nvalue = [0, 0, 9, 0, 0, 2, 0, 0, 0, 0]\nclass = dance", fillcolor="#98eb65"] ;
81 -> 82 ;
83 [label="gini = 0.0\nsamples = 1\nvalue = [0, 0, 0, 0, 0, 1, 0, 0, 0, 0]\nclass = pop", fillcolor="#399de5"] ;
82 -> 83 ;
84 [label="acousticness <= 0.968\ngini = 0.18\nsamples = 10\nvalue = [0, 0, 9, 0, 0, 1, 0, 0, 0, 0]\nclass = dance", fillcolor="#8ae84f"] ;
82 -> 84 ;
85 [label="energy <= 0.092\ngini = 0.5\nsamples = 2\nvalue = [0, 0, 1, 0, 0, 1, 0, 0, 0, 0]\nclass = dance", fillcolor="#ffffff"] ;
84 -> 85 ;
86 [label="gini = 0.0\nsamples = 1\nvalue = [0, 0, 1, 0, 0, 0, 0, 0, 0, 0]\nclass = dance", fillcolor="#7be539"] ;
85 -> 86 ;
87 [label="gini = 0.0\nsamples = 1\nvalue = [0, 0, 0, 0, 0, 1, 0, 0, 0, 0]\nclass = pop", fillcolor="#399de5"] ;
85 -> 87 ;
88 [label="gini = 0.0\nsamples = 8\nvalue = [0, 0, 8, 0, 0, 0, 0, 0, 0, 0]\nclass = dance", fillcolor="#7be539"] ;
84 -> 88 ;
89 [label="gini = 0.0\nsamples = 46\nvalue = [0, 0, 46, 0, 0, 0, 0, 0, 0, 0]\nclass = dance", fillcolor="#7be539"] ;
81 -> 89 ;
90 [label="instrumentalness <= 0.973\ngini = 0.32\nsamples = 5\nvalue = [0, 0, 4, 0, 0, 1, 0, 0, 0, 0]\nclass = dance", fillcolor="#9cec6a"] ;
64 -> 90 ;
91 [label="gini = 0.0\nsamples = 1\nvalue = [0, 0, 0, 0, 0, 1, 0, 0, 0, 0]\nclass = pop", fillcolor="#399de5"] ;
90 -> 91 ;
92 [label="gini = 0.0\nsamples = 4\nvalue = [0, 0, 4, 0, 0, 0, 0, 0, 0, 0]\nclass = dance", fillcolor="#7be539"] ;
90 -> 92 ;
93 [label="acousticness <= 0.835\ngini = 0.646\nsamples = 584\nvalue = [52, 27, 301, 3, 1, 160, 0, 2, 9, 29]\nclass = dance", fillcolor="#d3f6bd"] ;
1 -> 93 ;
94 [label="acousticness <= 0.5\ngini = 0.794\nsamples = 132\nvalue = [14, 16, 22, 2, 1, 44, 0, 1, 6, 26]\nclass = pop", fillcolor="#ddeefb"] ;
93 -> 94 ;
95 [label="instrumentalness <= 0.376\ngini = 0.669\nsamples = 30\nvalue = [4, 4, 1, 1, 0, 2, 0, 0, 2, 16]\nclass = classical", fillcolor="#f3a4b2"] ;
94 -> 95 ;
96 [label="energy <= 0.301\ngini = 0.744\nsamples = 11\nvalue = [3, 4, 0, 1, 0, 1, 0, 0, 2, 0]\nclass = jazz", fillcolor="#fbfce6"] ;
95 -> 96 ;
97 [label="loudness <= -20.75\ngini = 0.375\nsamples = 4\nvalue = [3, 0, 0, 0, 0, 0, 0, 0, 1, 0]\nclass = rock", fillcolor="#eeab7b"] ;
96 -> 97 ;
98 [label="gini = 0.0\nsamples = 1\nvalue = [0, 0, 0, 0, 0, 0, 0, 0, 1, 0]\nclass = techno", fillcolor="#e539c0"] ;
97 -> 98 ;
99 [label="gini = 0.0\nsamples = 3\nvalue = [3, 0, 0, 0, 0, 0, 0, 0, 0, 0]\nclass = rock", fillcolor="#e58139"] ;
97 -> 99 ;
100 [label="acousticness <= 0.079\ngini = 0.612\nsamples = 7\nvalue = [0, 4, 0, 1, 0, 1, 0, 0, 1, 0]\nclass = jazz", fillcolor="#f0f29c"] ;
96 -> 100 ;
101 [label="gini = 0.0\nsamples = 1\nvalue = [0, 0, 0, 0, 0, 1, 0, 0, 0, 0]\nclass = pop", fillcolor="#399de5"] ;
100 -> 101 ;
102 [label="loudness <= -16.818\ngini = 0.5\nsamples = 6\nvalue = [0, 4, 0, 1, 0, 0, 0, 0, 1, 0]\nclass = jazz", fillcolor="#eeef88"] ;
100 -> 102 ;
103 [label="loudness <= -19.764\ngini = 0.32\nsamples = 5\nvalue = [0, 4, 0, 0, 0, 0, 0, 0, 1, 0]\nclass = jazz", fillcolor="#e9ec6a"] ;
102 -> 103 ;
104 [label="gini = 0.5\nsamples = 2\nvalue = [0, 1, 0, 0, 0, 0, 0, 0, 1, 0]\nclass = jazz", fillcolor="#ffffff"] ;
103 -> 104 ;
105 [label="gini = 0.0\nsamples = 3\nvalue = [0, 3, 0, 0, 0, 0, 0, 0, 0, 0]\nclass = jazz", fillcolor="#e2e539"] ;
103 -> 105 ;
106 [label="gini = 0.0\nsamples = 1\nvalue = [0, 0, 0, 1, 0, 0, 0, 0, 0, 0]\nclass = country", fillcolor="#39e55e"] ;
102 -> 106 ;
107 [label="loudness <= -22.741\ngini = 0.283\nsamples = 19\nvalue = [1, 0, 1, 0, 0, 1, 0, 0, 0, 16]\nclass = classical", fillcolor="#e95a74"] ;
95 -> 107 ;
108 [label="gini = 0.0\nsamples = 1\nvalue = [0, 0, 1, 0, 0, 0, 0, 0, 0, 0]\nclass = dance", fillcolor="#7be539"] ;
107 -> 108 ;
109 [label="loudness <= -18.125\ngini = 0.204\nsamples = 18\nvalue = [1, 0, 0, 0, 0, 1, 0, 0, 0, 16]\nclass = classical", fillcolor="#e8506c"] ;
107 -> 109 ;
110 [label="loudness <= -18.396\ngini = 0.5\nsamples = 6\nvalue = [1, 0, 0, 0, 0, 1, 0, 0, 0, 4]\nclass = classical", fillcolor="#ef889b"] ;
109 -> 110 ;
111 [label="energy <= 0.434\ngini = 0.32\nsamples = 5\nvalue = [0, 0, 0, 0, 0, 1, 0, 0, 0, 4]\nclass = classical", fillcolor="#ec6a82"] ;
110 -> 111 ;
112 [label="gini = 0.0\nsamples = 3\nvalue = [0, 0, 0, 0, 0, 0, 0, 0, 0, 3]\nclass = classical", fillcolor="#e53958"] ;
111 -> 112 ;
113 [label="energy <= 0.498\ngini = 0.5\nsamples = 2\nvalue = [0, 0, 0, 0, 0, 1, 0, 0, 0, 1]\nclass = pop", fillcolor="#ffffff"] ;
111 -> 113 ;
114 [label="gini = 0.0\nsamples = 1\nvalue = [0, 0, 0, 0, 0, 1, 0, 0, 0, 0]\nclass = pop", fillcolor="#399de5"] ;
113 -> 114 ;
115 [label="gini = 0.0\nsamples = 1\nvalue = [0, 0, 0, 0, 0, 0, 0, 0, 0, 1]\nclass = classical", fillcolor="#e53958"] ;
113 -> 115 ;
116 [label="gini = 0.0\nsamples = 1\nvalue = [1, 0, 0, 0, 0, 0, 0, 0, 0, 0]\nclass = rock", fillcolor="#e58139"] ;
110 -> 116 ;
117 [label="gini = 0.0\nsamples = 12\nvalue = [0, 0, 0, 0, 0, 0, 0, 0, 0, 12]\nclass = classical", fillcolor="#e53958"] ;
109 -> 117 ;
118 [label="instrumentalness <= 0.898\ngini = 0.753\nsamples = 102\nvalue = [10, 12, 21, 1, 1, 42, 0, 1, 4, 10]\nclass = pop", fillcolor="#cce6f8"] ;
94 -> 118 ;
119 [label="instrumentalness <= 0.678\ngini = 0.72\nsamples = 85\nvalue = [9, 12, 16, 1, 1, 39, 0, 1, 3, 3]\nclass = pop", fillcolor="#bddef6"] ;
118 -> 119 ;
120 [label="loudness <= -19.142\ngini = 0.773\nsamples = 59\nvalue = [7, 12, 12, 1, 1, 21, 0, 1, 2, 2]\nclass = pop", fillcolor="#d9ecfa"] ;
119 -> 120 ;
121 [label="loudness <= -20.454\ngini = 0.727\nsamples = 17\nvalue = [4, 2, 7, 1, 0, 3, 0, 0, 0, 0]\nclass = dance", fillcolor="#e1f9d1"] ;
120 -> 121 ;
122 [label="loudness <= -20.667\ngini = 0.736\nsamples = 12\nvalue = [4, 2, 3, 0, 0, 3, 0, 0, 0, 0]\nclass = rock", fillcolor="#fcf1e9"] ;
121 -> 122 ;
123 [label="loudness <= -21.37\ngini = 0.716\nsamples = 9\nvalue = [1, 2, 3, 0, 0, 3, 0, 0, 0, 0]\nclass = dance", fillcolor="#ffffff"] ;
122 -> 123 ;
124 [label="instrumentalness <= 0.171\ngini = 0.694\nsamples = 7\nvalue = [1, 2, 3, 0, 0, 1, 0, 0, 0, 0]\nclass = dance", fillcolor="#e5fad7"] ;
123 -> 124 ;
125 [label="gini = 0.0\nsamples = 2\nvalue = [0, 2, 0, 0, 0, 0, 0, 0, 0, 0]\nclass = jazz", fillcolor="#e2e539"] ;
124 -> 125 ;
126 [label="acousticness <= 0.806\ngini = 0.56\nsamples = 5\nvalue = [1, 0, 3, 0, 0, 1, 0, 0, 0, 0]\nclass = dance", fillcolor="#bdf29c"] ;
124 -> 126 ;
127 [label="gini = 0.0\nsamples = 2\nvalue = [0, 0, 2, 0, 0, 0, 0, 0, 0, 0]\nclass = dance", fillcolor="#7be539"] ;
126 -> 127 ;
128 [label="acousticness <= 0.823\ngini = 0.667\nsamples = 3\nvalue = [1, 0, 1, 0, 0, 1, 0, 0, 0, 0]\nclass = rock", fillcolor="#ffffff"] ;
126 -> 128 ;
129 [label="gini = 0.0\nsamples = 1\nvalue = [1, 0, 0, 0, 0, 0, 0, 0, 0, 0]\nclass = rock", fillcolor="#e58139"] ;
128 -> 129 ;
130 [label="energy <= 0.078\ngini = 0.5\nsamples = 2\nvalue = [0, 0, 1, 0, 0, 1, 0, 0, 0, 0]\nclass = dance", fillcolor="#ffffff"] ;
128 -> 130 ;
131 [label="gini = 0.0\nsamples = 1\nvalue = [0, 0, 1, 0, 0, 0, 0, 0, 0, 0]\nclass = dance", fillcolor="#7be539"] ;
130 -> 131 ;
132 [label="gini = 0.0\nsamples = 1\nvalue = [0, 0, 0, 0, 0, 1, 0, 0, 0, 0]\nclass = pop", fillcolor="#399de5"] ;
130 -> 132 ;
133 [label="gini = 0.0\nsamples = 2\nvalue = [0, 0, 0, 0, 0, 2, 0, 0, 0, 0]\nclass = pop", fillcolor="#399de5"] ;
123 -> 133 ;
134 [label="gini = 0.0\nsamples = 3\nvalue = [3, 0, 0, 0, 0, 0, 0, 0, 0, 0]\nclass = rock", fillcolor="#e58139"] ;
122 -> 134 ;
135 [label="instrumentalness <= 0.156\ngini = 0.32\nsamples = 5\nvalue = [0, 0, 4, 1, 0, 0, 0, 0, 0, 0]\nclass = dance", fillcolor="#9cec6a"] ;
121 -> 135 ;
136 [label="instrumentalness <= 0.004\ngini = 0.5\nsamples = 2\nvalue = [0, 0, 1, 1, 0, 0, 0, 0, 0, 0]\nclass = dance", fillcolor="#ffffff"] ;
135 -> 136 ;
137 [label="gini = 0.0\nsamples = 1\nvalue = [0, 0, 1, 0, 0, 0, 0, 0, 0, 0]\nclass = dance", fillcolor="#7be539"] ;
136 -> 137 ;
138 [label="gini = 0.0\nsamples = 1\nvalue = [0, 0, 0, 1, 0, 0, 0, 0, 0, 0]\nclass = country", fillcolor="#39e55e"] ;
136 -> 138 ;
139 [label="gini = 0.0\nsamples = 3\nvalue = [0, 0, 3, 0, 0, 0, 0, 0, 0, 0]\nclass = dance", fillcolor="#7be539"] ;
135 -> 139 ;
140 [label="acousticness <= 0.722\ngini = 0.735\nsamples = 42\nvalue = [3, 10, 5, 0, 1, 18, 0, 1, 2, 2]\nclass = pop", fillcolor="#cee6f8"] ;
120 -> 140 ;
141 [label="loudness <= -17.071\ngini = 0.719\nsamples = 16\nvalue = [2, 7, 1, 0, 0, 4, 0, 1, 1, 0]\nclass = jazz", fillcolor="#f8f8ce"] ;
140 -> 141 ;
142 [label="acousticness <= 0.715\ngini = 0.46\nsamples = 10\nvalue = [2, 7, 0, 0, 0, 0, 0, 1, 0, 0]\nclass = jazz", fillcolor="#edef83"] ;
141 -> 142 ;
143 [label="loudness <= -17.863\ngini = 0.37\nsamples = 9\nvalue = [1, 7, 0, 0, 0, 0, 0, 1, 0, 0]\nclass = jazz", fillcolor="#e9ec6a"] ;
142 -> 143 ;
144 [label="gini = 0.0\nsamples = 5\nvalue = [0, 5, 0, 0, 0, 0, 0, 0, 0, 0]\nclass = jazz", fillcolor="#e2e539"] ;
143 -> 144 ;
145 [label="instrumentalness <= 0.193\ngini = 0.625\nsamples = 4\nvalue = [1, 2, 0, 0, 0, 0, 0, 1, 0, 0]\nclass = jazz", fillcolor="#f5f6bd"] ;
143 -> 145 ;
146 [label="energy <= 0.186\ngini = 0.5\nsamples = 2\nvalue = [1, 0, 0, 0, 0, 0, 0, 1, 0, 0]\nclass = rock", fillcolor="#ffffff"] ;
145 -> 146 ;
147 [label="gini = 0.0\nsamples = 1\nvalue = [1, 0, 0, 0, 0, 0, 0, 0, 0, 0]\nclass = rock", fillcolor="#e58139"] ;
146 -> 147 ;
148 [label="gini = 0.0\nsamples = 1\nvalue = [0, 0, 0, 0, 0, 0, 0, 1, 0, 0]\nclass = metal", fillcolor="#a339e5"] ;
146 -> 148 ;
149 [label="gini = 0.0\nsamples = 2\nvalue = [0, 2, 0, 0, 0, 0, 0, 0, 0, 0]\nclass = jazz", fillcolor="#e2e539"] ;
145 -> 149 ;
150 [label="gini = 0.0\nsamples = 1\nvalue = [1, 0, 0, 0, 0, 0, 0, 0, 0, 0]\nclass = rock", fillcolor="#e58139"] ;
142 -> 150 ;
151 [label="loudness <= -16.408\ngini = 0.5\nsamples = 6\nvalue = [0, 0, 1, 0, 0, 4, 0, 0, 1, 0]\nclass = pop", fillcolor="#88c4ef"] ;
141 -> 151 ;
152 [label="gini = 0.0\nsamples = 4\nvalue = [0, 0, 0, 0, 0, 4, 0, 0, 0, 0]\nclass = pop", fillcolor="#399de5"] ;
151 -> 152 ;
153 [label="acousticness <= 0.632\ngini = 0.5\nsamples = 2\nvalue = [0, 0, 1, 0, 0, 0, 0, 0, 1, 0]\nclass = dance", fillcolor="#ffffff"] ;
151 -> 153 ;
154 [label="gini = 0.0\nsamples = 1\nvalue = [0, 0, 1, 0, 0, 0, 0, 0, 0, 0]\nclass = dance", fillcolor="#7be539"] ;
153 -> 154 ;
155 [label="gini = 0.0\nsamples = 1\nvalue = [0, 0, 0, 0, 0, 0, 0, 0, 1, 0]\nclass = techno", fillcolor="#e539c0"] ;
153 -> 155 ;
156 [label="loudness <= -16.722\ngini = 0.663\nsamples = 26\nvalue = [1, 3, 4, 0, 1, 14, 0, 0, 1, 2]\nclass = pop", fillcolor="#a5d2f3"] ;
140 -> 156 ;
157 [label="instrumentalness <= 0.408\ngini = 0.48\nsamples = 20\nvalue = [1, 1, 3, 0, 1, 14, 0, 0, 0, 0]\nclass = pop", fillcolor="#7fc0ee"] ;
156 -> 157 ;
158 [label="acousticness <= 0.824\ngini = 0.383\nsamples = 18\nvalue = [1, 1, 1, 0, 1, 14, 0, 0, 0, 0]\nclass = pop", fillcolor="#68b4eb"] ;
157 -> 158 ;
159 [label="instrumentalness <= 0.0\ngini = 0.311\nsamples = 17\nvalue = [1, 0, 1, 0, 1, 14, 0, 0, 0, 0]\nclass = pop", fillcolor="#5eafea"] ;
158 -> 159 ;
160 [label="instrumentalness <= 0.0\ngini = 0.667\nsamples = 3\nvalue = [0, 0, 1, 0, 1, 1, 0, 0, 0, 0]\nclass = dance", fillcolor="#ffffff"] ;
159 -> 160 ;
161 [label="gini = 0.0\nsamples = 1\nvalue = [0, 0, 0, 0, 0, 1, 0, 0, 0, 0]\nclass = pop", fillcolor="#399de5"] ;
160 -> 161 ;
162 [label="energy <= 0.164\ngini = 0.5\nsamples = 2\nvalue = [0, 0, 1, 0, 1, 0, 0, 0, 0, 0]\nclass = dance", fillcolor="#ffffff"] ;
160 -> 162 ;
163 [label="gini = 0.0\nsamples = 1\nvalue = [0, 0, 1, 0, 0, 0, 0, 0, 0, 0]\nclass = dance", fillcolor="#7be539"] ;
162 -> 163 ;
164 [label="gini = 0.0\nsamples = 1\nvalue = [0, 0, 0, 0, 1, 0, 0, 0, 0, 0]\nclass = blues", fillcolor="#39e5c5"] ;
162 -> 164 ;
165 [label="energy <= 0.267\ngini = 0.133\nsamples = 14\nvalue = [1, 0, 0, 0, 0, 13, 0, 0, 0, 0]\nclass = pop", fillcolor="#48a5e7"] ;
159 -> 165 ;
166 [label="gini = 0.0\nsamples = 12\nvalue = [0, 0, 0, 0, 0, 12, 0, 0, 0, 0]\nclass = pop", fillcolor="#399de5"] ;
165 -> 166 ;
167 [label="acousticness <= 0.794\ngini = 0.5\nsamples = 2\nvalue = [1, 0, 0, 0, 0, 1, 0, 0, 0, 0]\nclass = rock", fillcolor="#ffffff"] ;
165 -> 167 ;
168 [label="gini = 0.0\nsamples = 1\nvalue = [0, 0, 0, 0, 0, 1, 0, 0, 0, 0]\nclass = pop", fillcolor="#399de5"] ;
167 -> 168 ;
169 [label="gini = 0.0\nsamples = 1\nvalue = [1, 0, 0, 0, 0, 0, 0, 0, 0, 0]\nclass = rock", fillcolor="#e58139"] ;
167 -> 169 ;
170 [label="gini = 0.0\nsamples = 1\nvalue = [0, 1, 0, 0, 0, 0, 0, 0, 0, 0]\nclass = jazz", fillcolor="#e2e539"] ;
158 -> 170 ;
171 [label="gini = 0.0\nsamples = 2\nvalue = [0, 0, 2, 0, 0, 0, 0, 0, 0, 0]\nclass = dance", fillcolor="#7be539"] ;
157 -> 171 ;
172 [label="energy <= 0.159\ngini = 0.722\nsamples = 6\nvalue = [0, 2, 1, 0, 0, 0, 0, 0, 1, 2]\nclass = jazz", fillcolor="#ffffff"] ;
156 -> 172 ;
173 [label="gini = 0.0\nsamples = 2\nvalue = [0, 2, 0, 0, 0, 0, 0, 0, 0, 0]\nclass = jazz", fillcolor="#e2e539"] ;
172 -> 173 ;
174 [label="energy <= 0.237\ngini = 0.625\nsamples = 4\nvalue = [0, 0, 1, 0, 0, 0, 0, 0, 1, 2]\nclass = classical", fillcolor="#f6bdc7"] ;
172 -> 174 ;
175 [label="acousticness <= 0.815\ngini = 0.5\nsamples = 2\nvalue = [0, 0, 1, 0, 0, 0, 0, 0, 1, 0]\nclass = dance", fillcolor="#ffffff"] ;
174 -> 175 ;
176 [label="gini = 0.0\nsamples = 1\nvalue = [0, 0, 0, 0, 0, 0, 0, 0, 1, 0]\nclass = techno", fillcolor="#e539c0"] ;
175 -> 176 ;
177 [label="gini = 0.0\nsamples = 1\nvalue = [0, 0, 1, 0, 0, 0, 0, 0, 0, 0]\nclass = dance", fillcolor="#7be539"] ;
175 -> 177 ;
178 [label="gini = 0.0\nsamples = 2\nvalue = [0, 0, 0, 0, 0, 0, 0, 0, 0, 2]\nclass = classical", fillcolor="#e53958"] ;
174 -> 178 ;
179 [label="acousticness <= 0.68\ngini = 0.488\nsamples = 26\nvalue = [2, 0, 4, 0, 0, 18, 0, 0, 1, 1]\nclass = pop", fillcolor="#81c1ee"] ;
119 -> 179 ;
180 [label="gini = 0.0\nsamples = 11\nvalue = [0, 0, 0, 0, 0, 11, 0, 0, 0, 0]\nclass = pop", fillcolor="#399de5"] ;
179 -> 180 ;
181 [label="acousticness <= 0.808\ngini = 0.684\nsamples = 15\nvalue = [2, 0, 4, 0, 0, 7, 0, 0, 1, 1]\nclass = pop", fillcolor="#c9e4f8"] ;
179 -> 181 ;
182 [label="energy <= 0.162\ngini = 0.744\nsamples = 11\nvalue = [2, 0, 4, 0, 0, 3, 0, 0, 1, 1]\nclass = dance", fillcolor="#eefce6"] ;
181 -> 182 ;
183 [label="acousticness <= 0.759\ngini = 0.32\nsamples = 5\nvalue = [0, 0, 4, 0, 0, 1, 0, 0, 0, 0]\nclass = dance", fillcolor="#9cec6a"] ;
182 -> 183 ;
184 [label="gini = 0.0\nsamples = 1\nvalue = [0, 0, 0, 0, 0, 1, 0, 0, 0, 0]\nclass = pop", fillcolor="#399de5"] ;
183 -> 184 ;
185 [label="gini = 0.0\nsamples = 4\nvalue = [0, 0, 4, 0, 0, 0, 0, 0, 0, 0]\nclass = dance", fillcolor="#7be539"] ;
183 -> 185 ;
186 [label="energy <= 0.25\ngini = 0.722\nsamples = 6\nvalue = [2, 0, 0, 0, 0, 2, 0, 0, 1, 1]\nclass = rock", fillcolor="#ffffff"] ;
182 -> 186 ;
187 [label="acousticness <= 0.726\ngini = 0.444\nsamples = 3\nvalue = [0, 0, 0, 0, 0, 2, 0, 0, 0, 1]\nclass = pop", fillcolor="#9ccef2"] ;
186 -> 187 ;
188 [label="gini = 0.0\nsamples = 1\nvalue = [0, 0, 0, 0, 0, 0, 0, 0, 0, 1]\nclass = classical", fillcolor="#e53958"] ;
187 -> 188 ;
189 [label="gini = 0.0\nsamples = 2\nvalue = [0, 0, 0, 0, 0, 2, 0, 0, 0, 0]\nclass = pop", fillcolor="#399de5"] ;
187 -> 189 ;
190 [label="acousticness <= 0.738\ngini = 0.444\nsamples = 3\nvalue = [2, 0, 0, 0, 0, 0, 0, 0, 1, 0]\nclass = rock", fillcolor="#f2c09c"] ;
186 -> 190 ;
191 [label="gini = 0.0\nsamples = 1\nvalue = [0, 0, 0, 0, 0, 0, 0, 0, 1, 0]\nclass = techno", fillcolor="#e539c0"] ;
190 -> 191 ;
192 [label="gini = 0.0\nsamples = 2\nvalue = [2, 0, 0, 0, 0, 0, 0, 0, 0, 0]\nclass = rock", fillcolor="#e58139"] ;
190 -> 192 ;
193 [label="gini = 0.0\nsamples = 4\nvalue = [0, 0, 0, 0, 0, 4, 0, 0, 0, 0]\nclass = pop", fillcolor="#399de5"] ;
181 -> 193 ;
194 [label="energy <= 0.155\ngini = 0.706\nsamples = 17\nvalue = [1, 0, 5, 0, 0, 3, 0, 0, 1, 7]\nclass = classical", fillcolor="#fbdee3"] ;
118 -> 194 ;
195 [label="loudness <= -21.87\ngini = 0.32\nsamples = 5\nvalue = [0, 0, 4, 0, 0, 0, 0, 0, 0, 1]\nclass = dance", fillcolor="#9cec6a"] ;
194 -> 195 ;
196 [label="gini = 0.0\nsamples = 1\nvalue = [0, 0, 0, 0, 0, 0, 0, 0, 0, 1]\nclass = classical", fillcolor="#e53958"] ;
195 -> 196 ;
197 [label="gini = 0.0\nsamples = 4\nvalue = [0, 0, 4, 0, 0, 0, 0, 0, 0, 0]\nclass = dance", fillcolor="#7be539"] ;
195 -> 197 ;
198 [label="acousticness <= 0.75\ngini = 0.667\nsamples = 12\nvalue = [1, 0, 1, 0, 0, 3, 0, 0, 1, 6]\nclass = classical", fillcolor="#f6bdc7"] ;
194 -> 198 ;
199 [label="loudness <= -17.799\ngini = 0.32\nsamples = 5\nvalue = [0, 0, 1, 0, 0, 0, 0, 0, 0, 4]\nclass = classical", fillcolor="#ec6a82"] ;
198 -> 199 ;
200 [label="gini = 0.0\nsamples = 3\nvalue = [0, 0, 0, 0, 0, 0, 0, 0, 0, 3]\nclass = classical", fillcolor="#e53958"] ;
199 -> 200 ;
201 [label="acousticness <= 0.743\ngini = 0.5\nsamples = 2\nvalue = [0, 0, 1, 0, 0, 0, 0, 0, 0, 1]\nclass = dance", fillcolor="#ffffff"] ;
199 -> 201 ;
202 [label="gini = 0.0\nsamples = 1\nvalue = [0, 0, 1, 0, 0, 0, 0, 0, 0, 0]\nclass = dance", fillcolor="#7be539"] ;
201 -> 202 ;
203 [label="gini = 0.0\nsamples = 1\nvalue = [0, 0, 0, 0, 0, 0, 0, 0, 0, 1]\nclass = classical", fillcolor="#e53958"] ;
201 -> 203 ;
204 [label="acousticness <= 0.757\ngini = 0.694\nsamples = 7\nvalue = [1, 0, 0, 0, 0, 3, 0, 0, 1, 2]\nclass = pop", fillcolor="#d7ebfa"] ;
198 -> 204 ;
205 [label="gini = 0.0\nsamples = 1\nvalue = [1, 0, 0, 0, 0, 0, 0, 0, 0, 0]\nclass = rock", fillcolor="#e58139"] ;
204 -> 205 ;
206 [label="acousticness <= 0.824\ngini = 0.611\nsamples = 6\nvalue = [0, 0, 0, 0, 0, 3, 0, 0, 1, 2]\nclass = pop", fillcolor="#cee6f8"] ;
204 -> 206 ;
207 [label="instrumentalness <= 0.921\ngini = 0.48\nsamples = 5\nvalue = [0, 0, 0, 0, 0, 3, 0, 0, 0, 2]\nclass = pop", fillcolor="#bddef6"] ;
206 -> 207 ;
208 [label="acousticness <= 0.763\ngini = 0.444\nsamples = 3\nvalue = [0, 0, 0, 0, 0, 1, 0, 0, 0, 2]\nclass = classical", fillcolor="#f29cac"] ;
207 -> 208 ;
209 [label="gini = 0.0\nsamples = 1\nvalue = [0, 0, 0, 0, 0, 1, 0, 0, 0, 0]\nclass = pop", fillcolor="#399de5"] ;
208 -> 209 ;
210 [label="gini = 0.0\nsamples = 2\nvalue = [0, 0, 0, 0, 0, 0, 0, 0, 0, 2]\nclass = classical", fillcolor="#e53958"] ;
208 -> 210 ;
211 [label="gini = 0.0\nsamples = 2\nvalue = [0, 0, 0, 0, 0, 2, 0, 0, 0, 0]\nclass = pop", fillcolor="#399de5"] ;
207 -> 211 ;
212 [label="gini = 0.0\nsamples = 1\nvalue = [0, 0, 0, 0, 0, 0, 0, 0, 1, 0]\nclass = techno", fillcolor="#e539c0"] ;
206 -> 212 ;
213 [label="instrumentalness <= 0.152\ngini = 0.545\nsamples = 452\nvalue = [38, 11, 279, 1, 0, 116, 0, 1, 3, 3]\nclass = dance", fillcolor="#bff29f"] ;
93 -> 213 ;
214 [label="energy <= 0.085\ngini = 0.719\nsamples = 83\nvalue = [22, 6, 18, 1, 0, 33, 0, 1, 1, 1]\nclass = pop", fillcolor="#dbedfa"] ;
213 -> 214 ;
215 [label="energy <= 0.034\ngini = 0.578\nsamples = 29\nvalue = [15, 0, 3, 0, 0, 11, 0, 0, 0, 0]\nclass = rock", fillcolor="#f9e3d3"] ;
214 -> 215 ;
216 [label="gini = 0.0\nsamples = 4\nvalue = [0, 0, 0, 0, 0, 4, 0, 0, 0, 0]\nclass = pop", fillcolor="#399de5"] ;
215 -> 216 ;
217 [label="energy <= 0.068\ngini = 0.547\nsamples = 25\nvalue = [15, 0, 3, 0, 0, 7, 0, 0, 0, 0]\nclass = rock", fillcolor="#f3c7a7"] ;
215 -> 217 ;
218 [label="energy <= 0.053\ngini = 0.595\nsamples = 17\nvalue = [8, 0, 2, 0, 0, 7, 0, 0, 0, 0]\nclass = rock", fillcolor="#fcf2eb"] ;
217 -> 218 ;
219 [label="gini = 0.0\nsamples = 5\nvalue = [5, 0, 0, 0, 0, 0, 0, 0, 0, 0]\nclass = rock", fillcolor="#e58139"] ;
218 -> 219 ;
220 [label="instrumentalness <= 0.031\ngini = 0.569\nsamples = 12\nvalue = [3, 0, 2, 0, 0, 7, 0, 0, 0, 0]\nclass = pop", fillcolor="#a7d3f3"] ;
218 -> 220 ;
221 [label="instrumentalness <= 0.0\ngini = 0.37\nsamples = 9\nvalue = [1, 0, 1, 0, 0, 7, 0, 0, 0, 0]\nclass = pop", fillcolor="#6ab6ec"] ;
220 -> 221 ;
222 [label="gini = 0.0\nsamples = 1\nvalue = [0, 0, 1, 0, 0, 0, 0, 0, 0, 0]\nclass = dance", fillcolor="#7be539"] ;
221 -> 222 ;
223 [label="acousticness <= 0.889\ngini = 0.219\nsamples = 8\nvalue = [1, 0, 0, 0, 0, 7, 0, 0, 0, 0]\nclass = pop", fillcolor="#55abe9"] ;
221 -> 223 ;
224 [label="gini = 0.0\nsamples = 1\nvalue = [1, 0, 0, 0, 0, 0, 0, 0, 0, 0]\nclass = rock", fillcolor="#e58139"] ;
223 -> 224 ;
225 [label="gini = 0.0\nsamples = 7\nvalue = [0, 0, 0, 0, 0, 7, 0, 0, 0, 0]\nclass = pop", fillcolor="#399de5"] ;
223 -> 225 ;
226 [label="acousticness <= 0.942\ngini = 0.444\nsamples = 3\nvalue = [2, 0, 1, 0, 0, 0, 0, 0, 0, 0]\nclass = rock", fillcolor="#f2c09c"] ;
220 -> 226 ;
227 [label="gini = 0.0\nsamples = 2\nvalue = [2, 0, 0, 0, 0, 0, 0, 0, 0, 0]\nclass = rock", fillcolor="#e58139"] ;
226 -> 227 ;
228 [label="gini = 0.0\nsamples = 1\nvalue = [0, 0, 1, 0, 0, 0, 0, 0, 0, 0]\nclass = dance", fillcolor="#7be539"] ;
226 -> 228 ;
229 [label="acousticness <= 0.979\ngini = 0.219\nsamples = 8\nvalue = [7, 0, 1, 0, 0, 0, 0, 0, 0, 0]\nclass = rock", fillcolor="#e99355"] ;
217 -> 229 ;
230 [label="gini = 0.0\nsamples = 7\nvalue = [7, 0, 0, 0, 0, 0, 0, 0, 0, 0]\nclass = rock", fillcolor="#e58139"] ;
229 -> 230 ;
231 [label="gini = 0.0\nsamples = 1\nvalue = [0, 0, 1, 0, 0, 0, 0, 0, 0, 0]\nclass = dance", fillcolor="#7be539"] ;
229 -> 231 ;
232 [label="instrumentalness <= 0.0\ngini = 0.726\nsamples = 54\nvalue = [7, 6, 15, 1, 0, 22, 0, 1, 1, 1]\nclass = pop", fillcolor="#dbedfa"] ;
214 -> 232 ;
233 [label="acousticness <= 0.91\ngini = 0.485\nsamples = 13\nvalue = [2, 1, 0, 1, 0, 9, 0, 0, 0, 0]\nclass = pop", fillcolor="#81c1ee"] ;
232 -> 233 ;
234 [label="energy <= 0.154\ngini = 0.444\nsamples = 3\nvalue = [2, 0, 0, 0, 0, 1, 0, 0, 0, 0]\nclass = rock", fillcolor="#f2c09c"] ;
233 -> 234 ;
235 [label="gini = 0.0\nsamples = 2\nvalue = [2, 0, 0, 0, 0, 0, 0, 0, 0, 0]\nclass = rock", fillcolor="#e58139"] ;
234 -> 235 ;
236 [label="gini = 0.0\nsamples = 1\nvalue = [0, 0, 0, 0, 0, 1, 0, 0, 0, 0]\nclass = pop", fillcolor="#399de5"] ;
234 -> 236 ;
237 [label="loudness <= -16.776\ngini = 0.34\nsamples = 10\nvalue = [0, 1, 0, 1, 0, 8, 0, 0, 0, 0]\nclass = pop", fillcolor="#65b3eb"] ;
233 -> 237 ;
238 [label="acousticness <= 0.915\ngini = 0.198\nsamples = 9\nvalue = [0, 1, 0, 0, 0, 8, 0, 0, 0, 0]\nclass = pop", fillcolor="#52a9e8"] ;
237 -> 238 ;
239 [label="gini = 0.5\nsamples = 2\nvalue = [0, 1, 0, 0, 0, 1, 0, 0, 0, 0]\nclass = jazz", fillcolor="#ffffff"] ;
238 -> 239 ;
240 [label="gini = 0.0\nsamples = 7\nvalue = [0, 0, 0, 0, 0, 7, 0, 0, 0, 0]\nclass = pop", fillcolor="#399de5"] ;
238 -> 240 ;
241 [label="gini = 0.0\nsamples = 1\nvalue = [0, 0, 0, 1, 0, 0, 0, 0, 0, 0]\nclass = country", fillcolor="#39e55e"] ;
237 -> 241 ;
242 [label="energy <= 0.422\ngini = 0.734\nsamples = 41\nvalue = [5, 5, 15, 0, 0, 13, 0, 1, 1, 1]\nclass = dance", fillcolor="#f6fdf1"] ;
232 -> 242 ;
243 [label="loudness <= -20.852\ngini = 0.738\nsamples = 38\nvalue = [5, 5, 15, 0, 0, 10, 0, 1, 1, 1]\nclass = dance", fillcolor="#e7fadc"] ;
242 -> 243 ;
244 [label="acousticness <= 0.843\ngini = 0.219\nsamples = 8\nvalue = [0, 0, 7, 0, 0, 1, 0, 0, 0, 0]\nclass = dance", fillcolor="#8ee955"] ;
243 -> 244 ;
245 [label="gini = 0.0\nsamples = 1\nvalue = [0, 0, 0, 0, 0, 1, 0, 0, 0, 0]\nclass = pop", fillcolor="#399de5"] ;
244 -> 245 ;
246 [label="gini = 0.0\nsamples = 7\nvalue = [0, 0, 7, 0, 0, 0, 0, 0, 0, 0]\nclass = dance", fillcolor="#7be539"] ;
244 -> 246 ;
247 [label="energy <= 0.131\ngini = 0.78\nsamples = 30\nvalue = [5, 5, 8, 0, 0, 9, 0, 1, 1, 1]\nclass = pop", fillcolor="#f6fbfe"] ;
243 -> 247 ;
248 [label="energy <= 0.115\ngini = 0.245\nsamples = 7\nvalue = [0, 0, 1, 0, 0, 6, 0, 0, 0, 0]\nclass = pop", fillcolor="#5aade9"] ;
247 -> 248 ;
249 [label="acousticness <= 0.974\ngini = 0.5\nsamples = 2\nvalue = [0, 0, 1, 0, 0, 1, 0, 0, 0, 0]\nclass = dance", fillcolor="#ffffff"] ;
248 -> 249 ;
250 [label="gini = 0.0\nsamples = 1\nvalue = [0, 0, 1, 0, 0, 0, 0, 0, 0, 0]\nclass = dance", fillcolor="#7be539"] ;
249 -> 250 ;
251 [label="gini = 0.0\nsamples = 1\nvalue = [0, 0, 0, 0, 0, 1, 0, 0, 0, 0]\nclass = pop", fillcolor="#399de5"] ;
249 -> 251 ;
252 [label="gini = 0.0\nsamples = 5\nvalue = [0, 0, 0, 0, 0, 5, 0, 0, 0, 0]\nclass = pop", fillcolor="#399de5"] ;
248 -> 252 ;
253 [label="instrumentalness <= 0.045\ngini = 0.79\nsamples = 23\nvalue = [5, 5, 7, 0, 0, 3, 0, 1, 1, 1]\nclass = dance", fillcolor="#f0fce9"] ;
247 -> 253 ;
254 [label="energy <= 0.134\ngini = 0.765\nsamples = 20\nvalue = [5, 3, 7, 0, 0, 3, 0, 1, 1, 0]\nclass = dance", fillcolor="#edfce5"] ;
253 -> 254 ;
255 [label="gini = 0.5\nsamples = 2\nvalue = [0, 0, 0, 0, 0, 0, 0, 1, 1, 0]\nclass = metal", fillcolor="#ffffff"] ;
254 -> 255 ;
256 [label="acousticness <= 0.87\ngini = 0.716\nsamples = 18\nvalue = [5, 3, 7, 0, 0, 3, 0, 0, 0, 0]\nclass = dance", fillcolor="#ebfbe1"] ;
254 -> 256 ;
257 [label="instrumentalness <= 0.018\ngini = 0.375\nsamples = 4\nvalue = [0, 0, 3, 0, 0, 1, 0, 0, 0, 0]\nclass = dance", fillcolor="#a7ee7b"] ;
256 -> 257 ;
258 [label="gini = 0.0\nsamples = 3\nvalue = [0, 0, 3, 0, 0, 0, 0, 0, 0, 0]\nclass = dance", fillcolor="#7be539"] ;
257 -> 258 ;
259 [label="gini = 0.0\nsamples = 1\nvalue = [0, 0, 0, 0, 0, 1, 0, 0, 0, 0]\nclass = pop", fillcolor="#399de5"] ;
257 -> 259 ;
260 [label="instrumentalness <= 0.008\ngini = 0.724\nsamples = 14\nvalue = [5, 3, 4, 0, 0, 2, 0, 0, 0, 0]\nclass = rock", fillcolor="#fcf2eb"] ;
256 -> 260 ;
261 [label="instrumentalness <= 0.002\ngini = 0.694\nsamples = 7\nvalue = [1, 3, 1, 0, 0, 2, 0, 0, 0, 0]\nclass = jazz", fillcolor="#f9fad7"] ;
260 -> 261 ;
262 [label="acousticness <= 0.879\ngini = 0.625\nsamples = 4\nvalue = [1, 0, 1, 0, 0, 2, 0, 0, 0, 0]\nclass = pop", fillcolor="#bddef6"] ;
261 -> 262 ;
263 [label="gini = 0.0\nsamples = 1\nvalue = [1, 0, 0, 0, 0, 0, 0, 0, 0, 0]\nclass = rock", fillcolor="#e58139"] ;
262 -> 263 ;
264 [label="loudness <= -17.669\ngini = 0.444\nsamples = 3\nvalue = [0, 0, 1, 0, 0, 2, 0, 0, 0, 0]\nclass = pop", fillcolor="#9ccef2"] ;
262 -> 264 ;
265 [label="gini = 0.0\nsamples = 1\nvalue = [0, 0, 1, 0, 0, 0, 0, 0, 0, 0]\nclass = dance", fillcolor="#7be539"] ;
264 -> 265 ;
266 [label="gini = 0.0\nsamples = 2\nvalue = [0, 0, 0, 0, 0, 2, 0, 0, 0, 0]\nclass = pop", fillcolor="#399de5"] ;
264 -> 266 ;
267 [label="gini = 0.0\nsamples = 3\nvalue = [0, 3, 0, 0, 0, 0, 0, 0, 0, 0]\nclass = jazz", fillcolor="#e2e539"] ;
261 -> 267 ;
268 [label="instrumentalness <= 0.021\ngini = 0.49\nsamples = 7\nvalue = [4, 0, 3, 0, 0, 0, 0, 0, 0, 0]\nclass = rock", fillcolor="#f8e0ce"] ;
260 -> 268 ;
269 [label="energy <= 0.31\ngini = 0.32\nsamples = 5\nvalue = [4, 0, 1, 0, 0, 0, 0, 0, 0, 0]\nclass = rock", fillcolor="#eca06a"] ;
268 -> 269 ;
270 [label="gini = 0.0\nsamples = 4\nvalue = [4, 0, 0, 0, 0, 0, 0, 0, 0, 0]\nclass = rock", fillcolor="#e58139"] ;
269 -> 270 ;
271 [label="gini = 0.0\nsamples = 1\nvalue = [0, 0, 1, 0, 0, 0, 0, 0, 0, 0]\nclass = dance", fillcolor="#7be539"] ;
269 -> 271 ;
272 [label="gini = 0.0\nsamples = 2\nvalue = [0, 0, 2, 0, 0, 0, 0, 0, 0, 0]\nclass = dance", fillcolor="#7be539"] ;
268 -> 272 ;
273 [label="instrumentalness <= 0.109\ngini = 0.444\nsamples = 3\nvalue = [0, 2, 0, 0, 0, 0, 0, 0, 0, 1]\nclass = jazz", fillcolor="#f0f29c"] ;
253 -> 273 ;
274 [label="gini = 0.0\nsamples = 2\nvalue = [0, 2, 0, 0, 0, 0, 0, 0, 0, 0]\nclass = jazz", fillcolor="#e2e539"] ;
273 -> 274 ;
275 [label="gini = 0.0\nsamples = 1\nvalue = [0, 0, 0, 0, 0, 0, 0, 0, 0, 1]\nclass = classical", fillcolor="#e53958"] ;
273 -> 275 ;
276 [label="gini = 0.0\nsamples = 3\nvalue = [0, 0, 0, 0, 0, 3, 0, 0, 0, 0]\nclass = pop", fillcolor="#399de5"] ;
242 -> 276 ;
277 [label="energy <= 0.044\ngini = 0.447\nsamples = 369\nvalue = [16, 5, 261, 0, 0, 83, 0, 0, 2, 2]\nclass = dance", fillcolor="#adef84"] ;
213 -> 277 ;
278 [label="loudness <= -22.747\ngini = 0.418\nsamples = 37\nvalue = [0, 0, 11, 0, 0, 26, 0, 0, 0, 0]\nclass = pop", fillcolor="#8dc6f0"] ;
277 -> 278 ;
279 [label="instrumentalness <= 0.94\ngini = 0.42\nsamples = 10\nvalue = [0, 0, 7, 0, 0, 3, 0, 0, 0, 0]\nclass = dance", fillcolor="#b4f08e"] ;
278 -> 279 ;
280 [label="energy <= 0.043\ngini = 0.219\nsamples = 8\nvalue = [0, 0, 7, 0, 0, 1, 0, 0, 0, 0]\nclass = dance", fillcolor="#8ee955"] ;
279 -> 280 ;
281 [label="gini = 0.0\nsamples = 7\nvalue = [0, 0, 7, 0, 0, 0, 0, 0, 0, 0]\nclass = dance", fillcolor="#7be539"] ;
280 -> 281 ;
282 [label="gini = 0.0\nsamples = 1\nvalue = [0, 0, 0, 0, 0, 1, 0, 0, 0, 0]\nclass = pop", fillcolor="#399de5"] ;
280 -> 282 ;
283 [label="gini = 0.0\nsamples = 2\nvalue = [0, 0, 0, 0, 0, 2, 0, 0, 0, 0]\nclass = pop", fillcolor="#399de5"] ;
279 -> 283 ;
284 [label="acousticness <= 0.968\ngini = 0.252\nsamples = 27\nvalue = [0, 0, 4, 0, 0, 23, 0, 0, 0, 0]\nclass = pop", fillcolor="#5baeea"] ;
278 -> 284 ;
285 [label="instrumentalness <= 0.515\ngini = 0.444\nsamples = 3\nvalue = [0, 0, 2, 0, 0, 1, 0, 0, 0, 0]\nclass = dance", fillcolor="#bdf29c"] ;
284 -> 285 ;
286 [label="gini = 0.0\nsamples = 1\nvalue = [0, 0, 0, 0, 0, 1, 0, 0, 0, 0]\nclass = pop", fillcolor="#399de5"] ;
285 -> 286 ;
287 [label="gini = 0.0\nsamples = 2\nvalue = [0, 0, 2, 0, 0, 0, 0, 0, 0, 0]\nclass = dance", fillcolor="#7be539"] ;
285 -> 287 ;
288 [label="energy <= 0.011\ngini = 0.153\nsamples = 24\nvalue = [0, 0, 2, 0, 0, 22, 0, 0, 0, 0]\nclass = pop", fillcolor="#4ba6e7"] ;
284 -> 288 ;
289 [label="gini = 0.0\nsamples = 1\nvalue = [0, 0, 1, 0, 0, 0, 0, 0, 0, 0]\nclass = dance", fillcolor="#7be539"] ;
288 -> 289 ;
290 [label="instrumentalness <= 0.837\ngini = 0.083\nsamples = 23\nvalue = [0, 0, 1, 0, 0, 22, 0, 0, 0, 0]\nclass = pop", fillcolor="#42a1e6"] ;
288 -> 290 ;
291 [label="instrumentalness <= 0.792\ngini = 0.32\nsamples = 5\nvalue = [0, 0, 1, 0, 0, 4, 0, 0, 0, 0]\nclass = pop", fillcolor="#6ab6ec"] ;
290 -> 291 ;
292 [label="gini = 0.0\nsamples = 4\nvalue = [0, 0, 0, 0, 0, 4, 0, 0, 0, 0]\nclass = pop", fillcolor="#399de5"] ;
291 -> 292 ;
293 [label="gini = 0.0\nsamples = 1\nvalue = [0, 0, 1, 0, 0, 0, 0, 0, 0, 0]\nclass = dance", fillcolor="#7be539"] ;
291 -> 293 ;
294 [label="gini = 0.0\nsamples = 18\nvalue = [0, 0, 0, 0, 0, 18, 0, 0, 0, 0]\nclass = pop", fillcolor="#399de5"] ;
290 -> 294 ;
295 [label="acousticness <= 0.979\ngini = 0.401\nsamples = 332\nvalue = [16, 5, 250, 0, 0, 57, 0, 0, 2, 2]\nclass = dance", fillcolor="#a2ed74"] ;
277 -> 295 ;
296 [label="energy <= 0.161\ngini = 0.483\nsamples = 217\nvalue = [14, 5, 148, 0, 0, 47, 0, 0, 2, 1]\nclass = dance", fillcolor="#b1f089"] ;
295 -> 296 ;
297 [label="loudness <= -16.942\ngini = 0.39\nsamples = 147\nvalue = [2, 0, 109, 0, 0, 36, 0, 0, 0, 0]\nclass = dance", fillcolor="#a8ee7d"] ;
296 -> 297 ;
298 [label="acousticness <= 0.907\ngini = 0.367\nsamples = 140\nvalue = [2, 0, 107, 0, 0, 31, 0, 0, 0, 0]\nclass = dance", fillcolor="#a3ed75"] ;
297 -> 298 ;
299 [label="loudness <= -17.563\ngini = 0.08\nsamples = 24\nvalue = [0, 0, 23, 0, 0, 1, 0, 0, 0, 0]\nclass = dance", fillcolor="#81e642"] ;
298 -> 299 ;
300 [label="gini = 0.0\nsamples = 22\nvalue = [0, 0, 22, 0, 0, 0, 0, 0, 0, 0]\nclass = dance", fillcolor="#7be539"] ;
299 -> 300 ;
301 [label="energy <= 0.131\ngini = 0.5\nsamples = 2\nvalue = [0, 0, 1, 0, 0, 1, 0, 0, 0, 0]\nclass = dance", fillcolor="#ffffff"] ;
299 -> 301 ;
302 [label="gini = 0.0\nsamples = 1\nvalue = [0, 0, 1, 0, 0, 0, 0, 0, 0, 0]\nclass = dance", fillcolor="#7be539"] ;
301 -> 302 ;
303 [label="gini = 0.0\nsamples = 1\nvalue = [0, 0, 0, 0, 0, 1, 0, 0, 0, 0]\nclass = pop", fillcolor="#399de5"] ;
301 -> 303 ;
304 [label="acousticness <= 0.912\ngini = 0.408\nsamples = 116\nvalue = [2, 0, 84, 0, 0, 30, 0, 0, 0, 0]\nclass = dance", fillcolor="#acef83"] ;
298 -> 304 ;
305 [label="energy <= 0.119\ngini = 0.444\nsamples = 3\nvalue = [1, 0, 0, 0, 0, 2, 0, 0, 0, 0]\nclass = pop", fillcolor="#9ccef2"] ;
304 -> 305 ;
306 [label="gini = 0.0\nsamples = 2\nvalue = [0, 0, 0, 0, 0, 2, 0, 0, 0, 0]\nclass = pop", fillcolor="#399de5"] ;
305 -> 306 ;
307 [label="gini = 0.0\nsamples = 1\nvalue = [1, 0, 0, 0, 0, 0, 0, 0, 0, 0]\nclass = rock", fillcolor="#e58139"] ;
305 -> 307 ;
308 [label="loudness <= -20.785\ngini = 0.386\nsamples = 113\nvalue = [1, 0, 84, 0, 0, 28, 0, 0, 0, 0]\nclass = dance", fillcolor="#a8ee7d"] ;
304 -> 308 ;
309 [label="loudness <= -23.824\ngini = 0.296\nsamples = 61\nvalue = [0, 0, 50, 0, 0, 11, 0, 0, 0, 0]\nclass = dance", fillcolor="#98eb65"] ;
308 -> 309 ;
310 [label="gini = 0.0\nsamples = 1\nvalue = [0, 0, 0, 0, 0, 1, 0, 0, 0, 0]\nclass = pop", fillcolor="#399de5"] ;
309 -> 310 ;
311 [label="energy <= 0.152\ngini = 0.278\nsamples = 60\nvalue = [0, 0, 50, 0, 0, 10, 0, 0, 0, 0]\nclass = dance", fillcolor="#95ea61"] ;
309 -> 311 ;
312 [label="instrumentalness <= 0.879\ngini = 0.259\nsamples = 59\nvalue = [0, 0, 50, 0, 0, 9, 0, 0, 0, 0]\nclass = dance", fillcolor="#93ea5d"] ;
311 -> 312 ;
313 [label="acousticness <= 0.923\ngini = 0.117\nsamples = 32\nvalue = [0, 0, 30, 0, 0, 2, 0, 0, 0, 0]\nclass = dance", fillcolor="#84e746"] ;
312 -> 313 ;
314 [label="loudness <= -22.285\ngini = 0.444\nsamples = 3\nvalue = [0, 0, 2, 0, 0, 1, 0, 0, 0, 0]\nclass = dance", fillcolor="#bdf29c"] ;
313 -> 314 ;
315 [label="gini = 0.0\nsamples = 2\nvalue = [0, 0, 2, 0, 0, 0, 0, 0, 0, 0]\nclass = dance", fillcolor="#7be539"] ;
314 -> 315 ;
316 [label="gini = 0.0\nsamples = 1\nvalue = [0, 0, 0, 0, 0, 1, 0, 0, 0, 0]\nclass = pop", fillcolor="#399de5"] ;
314 -> 316 ;
317 [label="energy <= 0.072\ngini = 0.067\nsamples = 29\nvalue = [0, 0, 28, 0, 0, 1, 0, 0, 0, 0]\nclass = dance", fillcolor="#80e640"] ;
313 -> 317 ;
318 [label="energy <= 0.071\ngini = 0.198\nsamples = 9\nvalue = [0, 0, 8, 0, 0, 1, 0, 0, 0, 0]\nclass = dance", fillcolor="#8ce852"] ;
317 -> 318 ;
319 [label="gini = 0.0\nsamples = 8\nvalue = [0, 0, 8, 0, 0, 0, 0, 0, 0, 0]\nclass = dance", fillcolor="#7be539"] ;
318 -> 319 ;
320 [label="gini = 0.0\nsamples = 1\nvalue = [0, 0, 0, 0, 0, 1, 0, 0, 0, 0]\nclass = pop", fillcolor="#399de5"] ;
318 -> 320 ;
321 [label="gini = 0.0\nsamples = 20\nvalue = [0, 0, 20, 0, 0, 0, 0, 0, 0, 0]\nclass = dance", fillcolor="#7be539"] ;
317 -> 321 ;
322 [label="instrumentalness <= 0.919\ngini = 0.384\nsamples = 27\nvalue = [0, 0, 20, 0, 0, 7, 0, 0, 0, 0]\nclass = dance", fillcolor="#a9ee7e"] ;
312 -> 322 ;
323 [label="loudness <= -23.323\ngini = 0.5\nsamples = 12\nvalue = [0, 0, 6, 0, 0, 6, 0, 0, 0, 0]\nclass = dance", fillcolor="#ffffff"] ;
322 -> 323 ;
324 [label="gini = 0.0\nsamples = 2\nvalue = [0, 0, 0, 0, 0, 2, 0, 0, 0, 0]\nclass = pop", fillcolor="#399de5"] ;
323 -> 324 ;
325 [label="acousticness <= 0.928\ngini = 0.48\nsamples = 10\nvalue = [0, 0, 6, 0, 0, 4, 0, 0, 0, 0]\nclass = dance", fillcolor="#d3f6bd"] ;
323 -> 325 ;
326 [label="gini = 0.0\nsamples = 2\nvalue = [0, 0, 0, 0, 0, 2, 0, 0, 0, 0]\nclass = pop", fillcolor="#399de5"] ;
325 -> 326 ;
327 [label="acousticness <= 0.977\ngini = 0.375\nsamples = 8\nvalue = [0, 0, 6, 0, 0, 2, 0, 0, 0, 0]\nclass = dance", fillcolor="#a7ee7b"] ;
325 -> 327 ;
328 [label="instrumentalness <= 0.903\ngini = 0.245\nsamples = 7\nvalue = [0, 0, 6, 0, 0, 1, 0, 0, 0, 0]\nclass = dance", fillcolor="#91e95a"] ;
327 -> 328 ;
329 [label="instrumentalness <= 0.896\ngini = 0.5\nsamples = 2\nvalue = [0, 0, 1, 0, 0, 1, 0, 0, 0, 0]\nclass = dance", fillcolor="#ffffff"] ;
328 -> 329 ;
330 [label="gini = 0.0\nsamples = 1\nvalue = [0, 0, 1, 0, 0, 0, 0, 0, 0, 0]\nclass = dance", fillcolor="#7be539"] ;
329 -> 330 ;
331 [label="gini = 0.0\nsamples = 1\nvalue = [0, 0, 0, 0, 0, 1, 0, 0, 0, 0]\nclass = pop", fillcolor="#399de5"] ;
329 -> 331 ;
332 [label="gini = 0.0\nsamples = 5\nvalue = [0, 0, 5, 0, 0, 0, 0, 0, 0, 0]\nclass = dance", fillcolor="#7be539"] ;
328 -> 332 ;
333 [label="gini = 0.0\nsamples = 1\nvalue = [0, 0, 0, 0, 0, 1, 0, 0, 0, 0]\nclass = pop", fillcolor="#399de5"] ;
327 -> 333 ;
334 [label="energy <= 0.109\ngini = 0.124\nsamples = 15\nvalue = [0, 0, 14, 0, 0, 1, 0, 0, 0, 0]\nclass = dance", fillcolor="#84e747"] ;
322 -> 334 ;
335 [label="gini = 0.0\nsamples = 14\nvalue = [0, 0, 14, 0, 0, 0, 0, 0, 0, 0]\nclass = dance", fillcolor="#7be539"] ;
334 -> 335 ;
336 [label="gini = 0.0\nsamples = 1\nvalue = [0, 0, 0, 0, 0, 1, 0, 0, 0, 0]\nclass = pop", fillcolor="#399de5"] ;
334 -> 336 ;
337 [label="gini = 0.0\nsamples = 1\nvalue = [0, 0, 0, 0, 0, 1, 0, 0, 0, 0]\nclass = pop", fillcolor="#399de5"] ;
311 -> 337 ;
338 [label="energy <= 0.073\ngini = 0.465\nsamples = 52\nvalue = [1, 0, 34, 0, 0, 17, 0, 0, 0, 0]\nclass = dance", fillcolor="#bff29f"] ;
308 -> 338 ;
339 [label="gini = 0.0\nsamples = 4\nvalue = [0, 0, 0, 0, 0, 4, 0, 0, 0, 0]\nclass = pop", fillcolor="#399de5"] ;
338 -> 339 ;
340 [label="instrumentalness <= 0.891\ngini = 0.424\nsamples = 48\nvalue = [1, 0, 34, 0, 0, 13, 0, 0, 0, 0]\nclass = dance", fillcolor="#b0ef88"] ;
338 -> 340 ;
341 [label="loudness <= -20.568\ngini = 0.5\nsamples = 33\nvalue = [1, 0, 20, 0, 0, 12, 0, 0, 0, 0]\nclass = dance", fillcolor="#cdf5b4"] ;
340 -> 341 ;
342 [label="gini = 0.0\nsamples = 2\nvalue = [0, 0, 0, 0, 0, 2, 0, 0, 0, 0]\nclass = pop", fillcolor="#399de5"] ;
341 -> 342 ;
343 [label="energy <= 0.115\ngini = 0.479\nsamples = 31\nvalue = [1, 0, 20, 0, 0, 10, 0, 0, 0, 0]\nclass = dance", fillcolor="#c0f3a1"] ;
341 -> 343 ;
344 [label="acousticness <= 0.924\ngini = 0.314\nsamples = 11\nvalue = [1, 0, 9, 0, 0, 1, 0, 0, 0, 0]\nclass = dance", fillcolor="#95ea61"] ;
343 -> 344 ;
345 [label="gini = 0.0\nsamples = 1\nvalue = [1, 0, 0, 0, 0, 0, 0, 0, 0, 0]\nclass = rock", fillcolor="#e58139"] ;
344 -> 345 ;
346 [label="acousticness <= 0.961\ngini = 0.18\nsamples = 10\nvalue = [0, 0, 9, 0, 0, 1, 0, 0, 0, 0]\nclass = dance", fillcolor="#8ae84f"] ;
344 -> 346 ;
347 [label="gini = 0.0\nsamples = 8\nvalue = [0, 0, 8, 0, 0, 0, 0, 0, 0, 0]\nclass = dance", fillcolor="#7be539"] ;
346 -> 347 ;
348 [label="energy <= 0.092\ngini = 0.5\nsamples = 2\nvalue = [0, 0, 1, 0, 0, 1, 0, 0, 0, 0]\nclass = dance", fillcolor="#ffffff"] ;
346 -> 348 ;
349 [label="gini = 0.0\nsamples = 1\nvalue = [0, 0, 0, 0, 0, 1, 0, 0, 0, 0]\nclass = pop", fillcolor="#399de5"] ;
348 -> 349 ;
350 [label="gini = 0.0\nsamples = 1\nvalue = [0, 0, 1, 0, 0, 0, 0, 0, 0, 0]\nclass = dance", fillcolor="#7be539"] ;
348 -> 350 ;
351 [label="energy <= 0.116\ngini = 0.495\nsamples = 20\nvalue = [0, 0, 11, 0, 0, 9, 0, 0, 0, 0]\nclass = dance", fillcolor="#e7fadb"] ;
343 -> 351 ;
352 [label="gini = 0.0\nsamples = 3\nvalue = [0, 0, 0, 0, 0, 3, 0, 0, 0, 0]\nclass = pop", fillcolor="#399de5"] ;
351 -> 352 ;
353 [label="instrumentalness <= 0.532\ngini = 0.457\nsamples = 17\nvalue = [0, 0, 11, 0, 0, 6, 0, 0, 0, 0]\nclass = dance", fillcolor="#c3f3a5"] ;
351 -> 353 ;
354 [label="gini = 0.0\nsamples = 4\nvalue = [0, 0, 4, 0, 0, 0, 0, 0, 0, 0]\nclass = dance", fillcolor="#7be539"] ;
353 -> 354 ;
355 [label="loudness <= -17.779\ngini = 0.497\nsamples = 13\nvalue = [0, 0, 7, 0, 0, 6, 0, 0, 0, 0]\nclass = dance", fillcolor="#ecfbe3"] ;
353 -> 355 ;
356 [label="energy <= 0.12\ngini = 0.48\nsamples = 10\nvalue = [0, 0, 4, 0, 0, 6, 0, 0, 0, 0]\nclass = pop", fillcolor="#bddef6"] ;
355 -> 356 ;
357 [label="gini = 0.0\nsamples = 2\nvalue = [0, 0, 2, 0, 0, 0, 0, 0, 0, 0]\nclass = dance", fillcolor="#7be539"] ;
356 -> 357 ;
358 [label="acousticness <= 0.916\ngini = 0.375\nsamples = 8\nvalue = [0, 0, 2, 0, 0, 6, 0, 0, 0, 0]\nclass = pop", fillcolor="#7bbeee"] ;
356 -> 358 ;
359 [label="gini = 0.0\nsamples = 1\nvalue = [0, 0, 1, 0, 0, 0, 0, 0, 0, 0]\nclass = dance", fillcolor="#7be539"] ;
358 -> 359 ;
360 [label="energy <= 0.142\ngini = 0.245\nsamples = 7\nvalue = [0, 0, 1, 0, 0, 6, 0, 0, 0, 0]\nclass = pop", fillcolor="#5aade9"] ;
358 -> 360 ;
361 [label="gini = 0.0\nsamples = 5\nvalue = [0, 0, 0, 0, 0, 5, 0, 0, 0, 0]\nclass = pop", fillcolor="#399de5"] ;
360 -> 361 ;
362 [label="acousticness <= 0.953\ngini = 0.5\nsamples = 2\nvalue = [0, 0, 1, 0, 0, 1, 0, 0, 0, 0]\nclass = dance", fillcolor="#ffffff"] ;
360 -> 362 ;
363 [label="gini = 0.0\nsamples = 1\nvalue = [0, 0, 0, 0, 0, 1, 0, 0, 0, 0]\nclass = pop", fillcolor="#399de5"] ;
362 -> 363 ;
364 [label="gini = 0.0\nsamples = 1\nvalue = [0, 0, 1, 0, 0, 0, 0, 0, 0, 0]\nclass = dance", fillcolor="#7be539"] ;
362 -> 364 ;
365 [label="gini = 0.0\nsamples = 3\nvalue = [0, 0, 3, 0, 0, 0, 0, 0, 0, 0]\nclass = dance", fillcolor="#7be539"] ;
355 -> 365 ;
366 [label="acousticness <= 0.978\ngini = 0.124\nsamples = 15\nvalue = [0, 0, 14, 0, 0, 1, 0, 0, 0, 0]\nclass = dance", fillcolor="#84e747"] ;
340 -> 366 ;
367 [label="gini = 0.0\nsamples = 13\nvalue = [0, 0, 13, 0, 0, 0, 0, 0, 0, 0]\nclass = dance", fillcolor="#7be539"] ;
366 -> 367 ;
368 [label="energy <= 0.107\ngini = 0.5\nsamples = 2\nvalue = [0, 0, 1, 0, 0, 1, 0, 0, 0, 0]\nclass = dance", fillcolor="#ffffff"] ;
366 -> 368 ;
369 [label="gini = 0.0\nsamples = 1\nvalue = [0, 0, 0, 0, 0, 1, 0, 0, 0, 0]\nclass = pop", fillcolor="#399de5"] ;
368 -> 369 ;
370 [label="gini = 0.0\nsamples = 1\nvalue = [0, 0, 1, 0, 0, 0, 0, 0, 0, 0]\nclass = dance", fillcolor="#7be539"] ;
368 -> 370 ;
371 [label="loudness <= -16.357\ngini = 0.408\nsamples = 7\nvalue = [0, 0, 2, 0, 0, 5, 0, 0, 0, 0]\nclass = pop", fillcolor="#88c4ef"] ;
297 -> 371 ;
372 [label="gini = 0.0\nsamples = 5\nvalue = [0, 0, 0, 0, 0, 5, 0, 0, 0, 0]\nclass = pop", fillcolor="#399de5"] ;
371 -> 372 ;
373 [label="gini = 0.0\nsamples = 2\nvalue = [0, 0, 2, 0, 0, 0, 0, 0, 0, 0]\nclass = dance", fillcolor="#7be539"] ;
371 -> 373 ;
374 [label="loudness <= -21.237\ngini = 0.629\nsamples = 70\nvalue = [12, 5, 39, 0, 0, 11, 0, 0, 2, 1]\nclass = dance", fillcolor="#c2f3a3"] ;
296 -> 374 ;
375 [label="loudness <= -22.425\ngini = 0.444\nsamples = 3\nvalue = [2, 0, 0, 0, 0, 0, 0, 0, 1, 0]\nclass = rock", fillcolor="#f2c09c"] ;
374 -> 375 ;
376 [label="gini = 0.0\nsamples = 1\nvalue = [0, 0, 0, 0, 0, 0, 0, 0, 1, 0]\nclass = techno", fillcolor="#e539c0"] ;
375 -> 376 ;
377 [label="gini = 0.0\nsamples = 2\nvalue = [2, 0, 0, 0, 0, 0, 0, 0, 0, 0]\nclass = rock", fillcolor="#e58139"] ;
375 -> 377 ;
378 [label="energy <= 0.469\ngini = 0.606\nsamples = 67\nvalue = [10, 5, 39, 0, 0, 11, 0, 0, 1, 1]\nclass = dance", fillcolor="#bdf29c"] ;
374 -> 378 ;
379 [label="instrumentalness <= 0.636\ngini = 0.582\nsamples = 65\nvalue = [10, 5, 39, 0, 0, 11, 0, 0, 0, 0]\nclass = dance", fillcolor="#bbf298"] ;
378 -> 379 ;
380 [label="energy <= 0.186\ngini = 0.649\nsamples = 15\nvalue = [2, 5, 7, 0, 0, 1, 0, 0, 0, 0]\nclass = dance", fillcolor="#e5fad7"] ;
379 -> 380 ;
381 [label="gini = 0.0\nsamples = 2\nvalue = [0, 0, 2, 0, 0, 0, 0, 0, 0, 0]\nclass = dance", fillcolor="#7be539"] ;
380 -> 381 ;
382 [label="energy <= 0.329\ngini = 0.675\nsamples = 13\nvalue = [2, 5, 5, 0, 0, 1, 0, 0, 0, 0]\nclass = jazz", fillcolor="#ffffff"] ;
380 -> 382 ;
383 [label="acousticness <= 0.852\ngini = 0.678\nsamples = 11\nvalue = [2, 5, 3, 0, 0, 1, 0, 0, 0, 0]\nclass = jazz", fillcolor="#f8f8ce"] ;
382 -> 383 ;
384 [label="gini = 0.0\nsamples = 1\nvalue = [0, 0, 0, 0, 0, 1, 0, 0, 0, 0]\nclass = pop", fillcolor="#399de5"] ;
383 -> 384 ;
385 [label="instrumentalness <= 0.487\ngini = 0.62\nsamples = 10\nvalue = [2, 5, 3, 0, 0, 0, 0, 0, 0, 0]\nclass = jazz", fillcolor="#f7f8c6"] ;
383 -> 385 ;
386 [label="energy <= 0.241\ngini = 0.656\nsamples = 8\nvalue = [2, 3, 3, 0, 0, 0, 0, 0, 0, 0]\nclass = jazz", fillcolor="#ffffff"] ;
385 -> 386 ;
387 [label="acousticness <= 0.943\ngini = 0.56\nsamples = 5\nvalue = [1, 1, 3, 0, 0, 0, 0, 0, 0, 0]\nclass = dance", fillcolor="#bdf29c"] ;
386 -> 387 ;
388 [label="loudness <= -16.311\ngini = 0.375\nsamples = 4\nvalue = [0, 1, 3, 0, 0, 0, 0, 0, 0, 0]\nclass = dance", fillcolor="#a7ee7b"] ;
387 -> 388 ;
389 [label="gini = 0.0\nsamples = 3\nvalue = [0, 0, 3, 0, 0, 0, 0, 0, 0, 0]\nclass = dance", fillcolor="#7be539"] ;
388 -> 389 ;
390 [label="gini = 0.0\nsamples = 1\nvalue = [0, 1, 0, 0, 0, 0, 0, 0, 0, 0]\nclass = jazz", fillcolor="#e2e539"] ;
388 -> 390 ;
391 [label="gini = 0.0\nsamples = 1\nvalue = [1, 0, 0, 0, 0, 0, 0, 0, 0, 0]\nclass = rock", fillcolor="#e58139"] ;
387 -> 391 ;
392 [label="loudness <= -18.231\ngini = 0.444\nsamples = 3\nvalue = [1, 2, 0, 0, 0, 0, 0, 0, 0, 0]\nclass = jazz", fillcolor="#f0f29c"] ;
386 -> 392 ;
393 [label="gini = 0.0\nsamples = 2\nvalue = [0, 2, 0, 0, 0, 0, 0, 0, 0, 0]\nclass = jazz", fillcolor="#e2e539"] ;
392 -> 393 ;
394 [label="gini = 0.0\nsamples = 1\nvalue = [1, 0, 0, 0, 0, 0, 0, 0, 0, 0]\nclass = rock", fillcolor="#e58139"] ;
392 -> 394 ;
395 [label="gini = 0.0\nsamples = 2\nvalue = [0, 2, 0, 0, 0, 0, 0, 0, 0, 0]\nclass = jazz", fillcolor="#e2e539"] ;
385 -> 395 ;
396 [label="gini = 0.0\nsamples = 2\nvalue = [0, 0, 2, 0, 0, 0, 0, 0, 0, 0]\nclass = dance", fillcolor="#7be539"] ;
382 -> 396 ;
397 [label="acousticness <= 0.921\ngini = 0.525\nsamples = 50\nvalue = [8, 0, 32, 0, 0, 10, 0, 0, 0, 0]\nclass = dance", fillcolor="#b6f192"] ;
379 -> 397 ;
398 [label="energy <= 0.194\ngini = 0.657\nsamples = 17\nvalue = [5, 0, 7, 0, 0, 5, 0, 0, 0, 0]\nclass = dance", fillcolor="#e9fbde"] ;
397 -> 398 ;
399 [label="instrumentalness <= 0.924\ngini = 0.375\nsamples = 4\nvalue = [1, 0, 0, 0, 0, 3, 0, 0, 0, 0]\nclass = pop", fillcolor="#7bbeee"] ;
398 -> 399 ;
400 [label="gini = 0.0\nsamples = 3\nvalue = [0, 0, 0, 0, 0, 3, 0, 0, 0, 0]\nclass = pop", fillcolor="#399de5"] ;
399 -> 400 ;
401 [label="gini = 0.0\nsamples = 1\nvalue = [1, 0, 0, 0, 0, 0, 0, 0, 0, 0]\nclass = rock", fillcolor="#e58139"] ;
399 -> 401 ;
402 [label="acousticness <= 0.896\ngini = 0.592\nsamples = 13\nvalue = [4, 0, 7, 0, 0, 2, 0, 0, 0, 0]\nclass = dance", fillcolor="#d3f6bd"] ;
398 -> 402 ;
403 [label="loudness <= -17.255\ngini = 0.406\nsamples = 8\nvalue = [1, 0, 6, 0, 0, 1, 0, 0, 0, 0]\nclass = dance", fillcolor="#a1ec72"] ;
402 -> 403 ;
404 [label="gini = 0.0\nsamples = 5\nvalue = [0, 0, 5, 0, 0, 0, 0, 0, 0, 0]\nclass = dance", fillcolor="#7be539"] ;
403 -> 404 ;
405 [label="energy <= 0.233\ngini = 0.667\nsamples = 3\nvalue = [1, 0, 1, 0, 0, 1, 0, 0, 0, 0]\nclass = rock", fillcolor="#ffffff"] ;
403 -> 405 ;
406 [label="gini = 0.0\nsamples = 1\nvalue = [0, 0, 0, 0, 0, 1, 0, 0, 0, 0]\nclass = pop", fillcolor="#399de5"] ;
405 -> 406 ;
407 [label="loudness <= -16.733\ngini = 0.5\nsamples = 2\nvalue = [1, 0, 1, 0, 0, 0, 0, 0, 0, 0]\nclass = rock", fillcolor="#ffffff"] ;
405 -> 407 ;
408 [label="gini = 0.0\nsamples = 1\nvalue = [1, 0, 0, 0, 0, 0, 0, 0, 0, 0]\nclass = rock", fillcolor="#e58139"] ;
407 -> 408 ;
409 [label="gini = 0.0\nsamples = 1\nvalue = [0, 0, 1, 0, 0, 0, 0, 0, 0, 0]\nclass = dance", fillcolor="#7be539"] ;
407 -> 409 ;
410 [label="energy <= 0.27\ngini = 0.56\nsamples = 5\nvalue = [3, 0, 1, 0, 0, 1, 0, 0, 0, 0]\nclass = rock", fillcolor="#f2c09c"] ;
402 -> 410 ;
411 [label="gini = 0.0\nsamples = 3\nvalue = [3, 0, 0, 0, 0, 0, 0, 0, 0, 0]\nclass = rock", fillcolor="#e58139"] ;
410 -> 411 ;
412 [label="loudness <= -16.785\ngini = 0.5\nsamples = 2\nvalue = [0, 0, 1, 0, 0, 1, 0, 0, 0, 0]\nclass = dance", fillcolor="#ffffff"] ;
410 -> 412 ;
413 [label="gini = 0.0\nsamples = 1\nvalue = [0, 0, 1, 0, 0, 0, 0, 0, 0, 0]\nclass = dance", fillcolor="#7be539"] ;
412 -> 413 ;
414 [label="gini = 0.0\nsamples = 1\nvalue = [0, 0, 0, 0, 0, 1, 0, 0, 0, 0]\nclass = pop", fillcolor="#399de5"] ;
412 -> 414 ;
415 [label="loudness <= -20.105\ngini = 0.395\nsamples = 33\nvalue = [3, 0, 25, 0, 0, 5, 0, 0, 0, 0]\nclass = dance", fillcolor="#a1ec72"] ;
397 -> 415 ;
416 [label="energy <= 0.17\ngini = 0.5\nsamples = 2\nvalue = [1, 0, 0, 0, 0, 1, 0, 0, 0, 0]\nclass = rock", fillcolor="#ffffff"] ;
415 -> 416 ;
417 [label="gini = 0.0\nsamples = 1\nvalue = [1, 0, 0, 0, 0, 0, 0, 0, 0, 0]\nclass = rock", fillcolor="#e58139"] ;
416 -> 417 ;
418 [label="gini = 0.0\nsamples = 1\nvalue = [0, 0, 0, 0, 0, 1, 0, 0, 0, 0]\nclass = pop", fillcolor="#399de5"] ;
416 -> 418 ;
419 [label="instrumentalness <= 0.979\ngini = 0.329\nsamples = 31\nvalue = [2, 0, 25, 0, 0, 4, 0, 0, 0, 0]\nclass = dance", fillcolor="#98eb65"] ;
415 -> 419 ;
420 [label="energy <= 0.163\ngini = 0.291\nsamples = 30\nvalue = [2, 0, 25, 0, 0, 3, 0, 0, 0, 0]\nclass = dance", fillcolor="#93ea5e"] ;
419 -> 420 ;
421 [label="gini = 0.0\nsamples = 1\nvalue = [0, 0, 0, 0, 0, 1, 0, 0, 0, 0]\nclass = pop", fillcolor="#399de5"] ;
420 -> 421 ;
422 [label="acousticness <= 0.951\ngini = 0.247\nsamples = 29\nvalue = [2, 0, 25, 0, 0, 2, 0, 0, 0, 0]\nclass = dance", fillcolor="#8fe956"] ;
420 -> 422 ;
423 [label="gini = 0.0\nsamples = 14\nvalue = [0, 0, 14, 0, 0, 0, 0, 0, 0, 0]\nclass = dance", fillcolor="#7be539"] ;
422 -> 423 ;
424 [label="acousticness <= 0.953\ngini = 0.427\nsamples = 15\nvalue = [2, 0, 11, 0, 0, 2, 0, 0, 0, 0]\nclass = dance", fillcolor="#a4ed76"] ;
422 -> 424 ;
425 [label="gini = 0.0\nsamples = 1\nvalue = [1, 0, 0, 0, 0, 0, 0, 0, 0, 0]\nclass = rock", fillcolor="#e58139"] ;
424 -> 425 ;
426 [label="energy <= 0.246\ngini = 0.357\nsamples = 14\nvalue = [1, 0, 11, 0, 0, 2, 0, 0, 0, 0]\nclass = dance", fillcolor="#9cec6b"] ;
424 -> 426 ;
427 [label="energy <= 0.229\ngini = 0.531\nsamples = 8\nvalue = [1, 0, 5, 0, 0, 2, 0, 0, 0, 0]\nclass = dance", fillcolor="#bdf29c"] ;
426 -> 427 ;
428 [label="acousticness <= 0.962\ngini = 0.278\nsamples = 6\nvalue = [1, 0, 5, 0, 0, 0, 0, 0, 0, 0]\nclass = dance", fillcolor="#95ea61"] ;
427 -> 428 ;
429 [label="energy <= 0.173\ngini = 0.5\nsamples = 2\nvalue = [1, 0, 1, 0, 0, 0, 0, 0, 0, 0]\nclass = rock", fillcolor="#ffffff"] ;
428 -> 429 ;
430 [label="gini = 0.0\nsamples = 1\nvalue = [0, 0, 1, 0, 0, 0, 0, 0, 0, 0]\nclass = dance", fillcolor="#7be539"] ;
429 -> 430 ;
431 [label="gini = 0.0\nsamples = 1\nvalue = [1, 0, 0, 0, 0, 0, 0, 0, 0, 0]\nclass = rock", fillcolor="#e58139"] ;
429 -> 431 ;
432 [label="gini = 0.0\nsamples = 4\nvalue = [0, 0, 4, 0, 0, 0, 0, 0, 0, 0]\nclass = dance", fillcolor="#7be539"] ;
428 -> 432 ;
433 [label="gini = 0.0\nsamples = 2\nvalue = [0, 0, 0, 0, 0, 2, 0, 0, 0, 0]\nclass = pop", fillcolor="#399de5"] ;
427 -> 433 ;
434 [label="gini = 0.0\nsamples = 6\nvalue = [0, 0, 6, 0, 0, 0, 0, 0, 0, 0]\nclass = dance", fillcolor="#7be539"] ;
426 -> 434 ;
435 [label="gini = 0.0\nsamples = 1\nvalue = [0, 0, 0, 0, 0, 1, 0, 0, 0, 0]\nclass = pop", fillcolor="#399de5"] ;
419 -> 435 ;
436 [label="instrumentalness <= 0.944\ngini = 0.5\nsamples = 2\nvalue = [0, 0, 0, 0, 0, 0, 0, 0, 1, 1]\nclass = techno", fillcolor="#ffffff"] ;
378 -> 436 ;
437 [label="gini = 0.0\nsamples = 1\nvalue = [0, 0, 0, 0, 0, 0, 0, 0, 1, 0]\nclass = techno", fillcolor="#e539c0"] ;
436 -> 437 ;
438 [label="gini = 0.0\nsamples = 1\nvalue = [0, 0, 0, 0, 0, 0, 0, 0, 0, 1]\nclass = classical", fillcolor="#e53958"] ;
436 -> 438 ;
439 [label="acousticness <= 0.995\ngini = 0.205\nsamples = 115\nvalue = [2, 0, 102, 0, 0, 10, 0, 0, 0, 1]\nclass = dance", fillcolor="#8be852"] ;
295 -> 439 ;
440 [label="instrumentalness <= 0.456\ngini = 0.146\nsamples = 103\nvalue = [2, 0, 95, 0, 0, 6, 0, 0, 0, 0]\nclass = dance", fillcolor="#86e749"] ;
439 -> 440 ;
441 [label="gini = 0.0\nsamples = 1\nvalue = [1, 0, 0, 0, 0, 0, 0, 0, 0, 0]\nclass = rock", fillcolor="#e58139"] ;
440 -> 441 ;
442 [label="instrumentalness <= 0.966\ngini = 0.129\nsamples = 102\nvalue = [1, 0, 95, 0, 0, 6, 0, 0, 0, 0]\nclass = dance", fillcolor="#85e747"] ;
440 -> 442 ;
443 [label="acousticness <= 0.991\ngini = 0.113\nsamples = 101\nvalue = [1, 0, 95, 0, 0, 5, 0, 0, 0, 0]\nclass = dance", fillcolor="#83e745"] ;
442 -> 443 ;
444 [label="instrumentalness <= 0.855\ngini = 0.062\nsamples = 63\nvalue = [1, 0, 61, 0, 0, 1, 0, 0, 0, 0]\nclass = dance", fillcolor="#7fe63f"] ;
443 -> 444 ;
445 [label="instrumentalness <= 0.845\ngini = 0.245\nsamples = 7\nvalue = [0, 0, 6, 0, 0, 1, 0, 0, 0, 0]\nclass = dance", fillcolor="#91e95a"] ;
444 -> 445 ;
446 [label="gini = 0.0\nsamples = 6\nvalue = [0, 0, 6, 0, 0, 0, 0, 0, 0, 0]\nclass = dance", fillcolor="#7be539"] ;
445 -> 446 ;
447 [label="gini = 0.0\nsamples = 1\nvalue = [0, 0, 0, 0, 0, 1, 0, 0, 0, 0]\nclass = pop", fillcolor="#399de5"] ;
445 -> 447 ;
448 [label="energy <= 0.144\ngini = 0.035\nsamples = 56\nvalue = [1, 0, 55, 0, 0, 0, 0, 0, 0, 0]\nclass = dance", fillcolor="#7de53d"] ;
444 -> 448 ;
449 [label="gini = 0.0\nsamples = 36\nvalue = [0, 0, 36, 0, 0, 0, 0, 0, 0, 0]\nclass = dance", fillcolor="#7be539"] ;
448 -> 449 ;
450 [label="energy <= 0.147\ngini = 0.095\nsamples = 20\nvalue = [1, 0, 19, 0, 0, 0, 0, 0, 0, 0]\nclass = dance", fillcolor="#82e643"] ;
448 -> 450 ;
451 [label="gini = 0.0\nsamples = 1\nvalue = [1, 0, 0, 0, 0, 0, 0, 0, 0, 0]\nclass = rock", fillcolor="#e58139"] ;
450 -> 451 ;
452 [label="gini = 0.0\nsamples = 19\nvalue = [0, 0, 19, 0, 0, 0, 0, 0, 0, 0]\nclass = dance", fillcolor="#7be539"] ;
450 -> 452 ;
453 [label="energy <= 0.122\ngini = 0.188\nsamples = 38\nvalue = [0, 0, 34, 0, 0, 4, 0, 0, 0, 0]\nclass = dance", fillcolor="#8be850"] ;
443 -> 453 ;
454 [label="energy <= 0.113\ngini = 0.32\nsamples = 20\nvalue = [0, 0, 16, 0, 0, 4, 0, 0, 0, 0]\nclass = dance", fillcolor="#9cec6a"] ;
453 -> 454 ;
455 [label="acousticness <= 0.991\ngini = 0.198\nsamples = 18\nvalue = [0, 0, 16, 0, 0, 2, 0, 0, 0, 0]\nclass = dance", fillcolor="#8ce852"] ;
454 -> 455 ;
456 [label="energy <= 0.108\ngini = 0.444\nsamples = 6\nvalue = [0, 0, 4, 0, 0, 2, 0, 0, 0, 0]\nclass = dance", fillcolor="#bdf29c"] ;
455 -> 456 ;
457 [label="energy <= 0.092\ngini = 0.5\nsamples = 4\nvalue = [0, 0, 2, 0, 0, 2, 0, 0, 0, 0]\nclass = dance", fillcolor="#ffffff"] ;
456 -> 457 ;
458 [label="energy <= 0.071\ngini = 0.444\nsamples = 3\nvalue = [0, 0, 2, 0, 0, 1, 0, 0, 0, 0]\nclass = dance", fillcolor="#bdf29c"] ;
457 -> 458 ;
459 [label="gini = 0.5\nsamples = 2\nvalue = [0, 0, 1, 0, 0, 1, 0, 0, 0, 0]\nclass = dance", fillcolor="#ffffff"] ;
458 -> 459 ;
460 [label="gini = 0.0\nsamples = 1\nvalue = [0, 0, 1, 0, 0, 0, 0, 0, 0, 0]\nclass = dance", fillcolor="#7be539"] ;
458 -> 460 ;
461 [label="gini = 0.0\nsamples = 1\nvalue = [0, 0, 0, 0, 0, 1, 0, 0, 0, 0]\nclass = pop", fillcolor="#399de5"] ;
457 -> 461 ;
462 [label="gini = 0.0\nsamples = 2\nvalue = [0, 0, 2, 0, 0, 0, 0, 0, 0, 0]\nclass = dance", fillcolor="#7be539"] ;
456 -> 462 ;
463 [label="gini = 0.0\nsamples = 12\nvalue = [0, 0, 12, 0, 0, 0, 0, 0, 0, 0]\nclass = dance", fillcolor="#7be539"] ;
455 -> 463 ;
464 [label="gini = 0.0\nsamples = 2\nvalue = [0, 0, 0, 0, 0, 2, 0, 0, 0, 0]\nclass = pop", fillcolor="#399de5"] ;
454 -> 464 ;
465 [label="gini = 0.0\nsamples = 18\nvalue = [0, 0, 18, 0, 0, 0, 0, 0, 0, 0]\nclass = dance", fillcolor="#7be539"] ;
453 -> 465 ;
466 [label="gini = 0.0\nsamples = 1\nvalue = [0, 0, 0, 0, 0, 1, 0, 0, 0, 0]\nclass = pop", fillcolor="#399de5"] ;
442 -> 466 ;
467 [label="instrumentalness <= 0.926\ngini = 0.542\nsamples = 12\nvalue = [0, 0, 7, 0, 0, 4, 0, 0, 0, 1]\nclass = dance", fillcolor="#cef5b5"] ;
439 -> 467 ;
468 [label="gini = 0.0\nsamples = 3\nvalue = [0, 0, 3, 0, 0, 0, 0, 0, 0, 0]\nclass = dance", fillcolor="#7be539"] ;
467 -> 468 ;
469 [label="energy <= 0.117\ngini = 0.593\nsamples = 9\nvalue = [0, 0, 4, 0, 0, 4, 0, 0, 0, 1]\nclass = dance", fillcolor="#ffffff"] ;
467 -> 469 ;
470 [label="loudness <= -21.247\ngini = 0.571\nsamples = 7\nvalue = [0, 0, 2, 0, 0, 4, 0, 0, 0, 1]\nclass = pop", fillcolor="#b0d8f5"] ;
469 -> 470 ;
471 [label="gini = 0.0\nsamples = 3\nvalue = [0, 0, 0, 0, 0, 3, 0, 0, 0, 0]\nclass = pop", fillcolor="#399de5"] ;
470 -> 471 ;
472 [label="energy <= 0.077\ngini = 0.625\nsamples = 4\nvalue = [0, 0, 2, 0, 0, 1, 0, 0, 0, 1]\nclass = dance", fillcolor="#d3f6bd"] ;
470 -> 472 ;
473 [label="gini = 0.0\nsamples = 1\nvalue = [0, 0, 1, 0, 0, 0, 0, 0, 0, 0]\nclass = dance", fillcolor="#7be539"] ;
472 -> 473 ;
474 [label="gini = 0.667\nsamples = 3\nvalue = [0, 0, 1, 0, 0, 1, 0, 0, 0, 1]\nclass = dance", fillcolor="#ffffff"] ;
472 -> 474 ;
475 [label="gini = 0.0\nsamples = 2\nvalue = [0, 0, 2, 0, 0, 0, 0, 0, 0, 0]\nclass = dance", fillcolor="#7be539"] ;
469 -> 475 ;
476 [label="instrumentalness <= 0.194\ngini = 0.892\nsamples = 8483\nvalue = [921, 935, 150, 970, 961, 783, 960, 927, 948, 928]\nclass = country", fillcolor="#ffffff"] ;
0 -> 476 [labeldistance=2.5, labelangle=-45, headlabel="False"] ;
477 [label="acousticness <= 0.003\ngini = 0.883\nsamples = 7139\nvalue = [865, 795, 81, 964, 947, 470, 914, 864, 898, 341]\nclass = country", fillcolor="#feffff"] ;
476 -> 477 ;
478 [label="acousticness <= 0.001\ngini = 0.71\nsamples = 1181\nvalue = [25, 73, 24, 17, 69, 10, 581, 110, 194, 78]\nclass = acoustic", fillcolor="#b3b1f5"] ;
477 -> 478 ;
479 [label="energy <= 0.907\ngini = 0.607\nsamples = 704\nvalue = [8, 39, 23, 8, 19, 2, 422, 55, 103, 25]\nclass = acoustic", fillcolor="#9796f1"] ;
478 -> 479 ;
480 [label="energy <= 0.725\ngini = 0.728\nsamples = 287\nvalue = [5, 21, 6, 8, 12, 1, 130, 34, 59, 11]\nclass = acoustic", fillcolor="#c2c1f7"] ;
479 -> 480 ;
481 [label="instrumentalness <= 0.006\ngini = 0.861\nsamples = 44\nvalue = [1, 5, 0, 5, 5, 1, 8, 4, 8, 7]\nclass = acoustic", fillcolor="#ffffff"] ;
480 -> 481 ;
482 [label="acousticness <= 0.0\ngini = 0.83\nsamples = 31\nvalue = [1, 1, 0, 4, 5, 0, 8, 4, 6, 2]\nclass = acoustic", fillcolor="#efeffd"] ;
481 -> 482 ;
483 [label="instrumentalness <= 0.0\ngini = 0.757\nsamples = 13\nvalue = [1, 0, 0, 0, 4, 0, 4, 2, 0, 2]\nclass = blues", fillcolor="#ffffff"] ;
482 -> 483 ;
484 [label="gini = 0.0\nsamples = 3\nvalue = [0, 0, 0, 0, 3, 0, 0, 0, 0, 0]\nclass = blues", fillcolor="#39e5c5"] ;
483 -> 484 ;
485 [label="energy <= 0.691\ngini = 0.74\nsamples = 10\nvalue = [1, 0, 0, 0, 1, 0, 4, 2, 0, 2]\nclass = acoustic", fillcolor="#cecef8"] ;
483 -> 485 ;
486 [label="instrumentalness <= 0.001\ngini = 0.722\nsamples = 6\nvalue = [0, 0, 0, 0, 1, 0, 1, 2, 0, 2]\nclass = metal", fillcolor="#ffffff"] ;
485 -> 486 ;
487 [label="energy <= 0.622\ngini = 0.625\nsamples = 4\nvalue = [0, 0, 0, 0, 1, 0, 1, 2, 0, 0]\nclass = metal", fillcolor="#e0bdf6"] ;
486 -> 487 ;
488 [label="gini = 0.0\nsamples = 1\nvalue = [0, 0, 0, 0, 0, 0, 1, 0, 0, 0]\nclass = acoustic", fillcolor="#3c39e5"] ;
487 -> 488 ;
489 [label="acousticness <= 0.0\ngini = 0.444\nsamples = 3\nvalue = [0, 0, 0, 0, 1, 0, 0, 2, 0, 0]\nclass = metal", fillcolor="#d19cf2"] ;
487 -> 489 ;
490 [label="gini = 0.0\nsamples = 1\nvalue = [0, 0, 0, 0, 0, 0, 0, 1, 0, 0]\nclass = metal", fillcolor="#a339e5"] ;
489 -> 490 ;
491 [label="gini = 0.5\nsamples = 2\nvalue = [0, 0, 0, 0, 1, 0, 0, 1, 0, 0]\nclass = blues", fillcolor="#ffffff"] ;
489 -> 491 ;
492 [label="gini = 0.0\nsamples = 2\nvalue = [0, 0, 0, 0, 0, 0, 0, 0, 0, 2]\nclass = classical", fillcolor="#e53958"] ;
486 -> 492 ;
493 [label="instrumentalness <= 0.001\ngini = 0.375\nsamples = 4\nvalue = [1, 0, 0, 0, 0, 0, 3, 0, 0, 0]\nclass = acoustic", fillcolor="#7d7bee"] ;
485 -> 493 ;
494 [label="gini = 0.0\nsamples = 1\nvalue = [1, 0, 0, 0, 0, 0, 0, 0, 0, 0]\nclass = rock", fillcolor="#e58139"] ;
493 -> 494 ;
495 [label="gini = 0.0\nsamples = 3\nvalue = [0, 0, 0, 0, 0, 0, 3, 0, 0, 0]\nclass = acoustic", fillcolor="#3c39e5"] ;
493 -> 495 ;
496 [label="energy <= 0.722\ngini = 0.772\nsamples = 18\nvalue = [0, 1, 0, 4, 1, 0, 4, 2, 6, 0]\nclass = techno", fillcolor="#fbe3f6"] ;
482 -> 496 ;
497 [label="energy <= 0.642\ngini = 0.747\nsamples = 17\nvalue = [0, 0, 0, 4, 1, 0, 4, 2, 6, 0]\nclass = techno", fillcolor="#fbe1f5"] ;
496 -> 497 ;
498 [label="instrumentalness <= 0.0\ngini = 0.625\nsamples = 4\nvalue = [0, 0, 0, 1, 0, 0, 2, 1, 0, 0]\nclass = acoustic", fillcolor="#bebdf6"] ;
497 -> 498 ;
499 [label="gini = 0.0\nsamples = 1\nvalue = [0, 0, 0, 1, 0, 0, 0, 0, 0, 0]\nclass = country", fillcolor="#39e55e"] ;
498 -> 499 ;
500 [label="energy <= 0.586\ngini = 0.444\nsamples = 3\nvalue = [0, 0, 0, 0, 0, 0, 2, 1, 0, 0]\nclass = acoustic", fillcolor="#9e9cf2"] ;
498 -> 500 ;
501 [label="gini = 0.0\nsamples = 1\nvalue = [0, 0, 0, 0, 0, 0, 1, 0, 0, 0]\nclass = acoustic", fillcolor="#3c39e5"] ;
500 -> 501 ;
502 [label="acousticness <= 0.001\ngini = 0.5\nsamples = 2\nvalue = [0, 0, 0, 0, 0, 0, 1, 1, 0, 0]\nclass = acoustic", fillcolor="#ffffff"] ;
500 -> 502 ;
503 [label="gini = 0.0\nsamples = 1\nvalue = [0, 0, 0, 0, 0, 0, 0, 1, 0, 0]\nclass = metal", fillcolor="#a339e5"] ;
502 -> 503 ;
504 [label="gini = 0.0\nsamples = 1\nvalue = [0, 0, 0, 0, 0, 0, 1, 0, 0, 0]\nclass = acoustic", fillcolor="#3c39e5"] ;
502 -> 504 ;
505 [label="energy <= 0.713\ngini = 0.698\nsamples = 13\nvalue = [0, 0, 0, 3, 1, 0, 2, 1, 6, 0]\nclass = techno", fillcolor="#f7c4ec"] ;
497 -> 505 ;
506 [label="loudness <= -6.862\ngini = 0.681\nsamples = 12\nvalue = [0, 0, 0, 2, 1, 0, 2, 1, 6, 0]\nclass = techno", fillcolor="#f5b0e6"] ;
505 -> 506 ;
507 [label="energy <= 0.654\ngini = 0.625\nsamples = 4\nvalue = [0, 0, 0, 0, 1, 0, 0, 1, 2, 0]\nclass = techno", fillcolor="#f6bdea"] ;
506 -> 507 ;
508 [label="gini = 0.5\nsamples = 2\nvalue = [0, 0, 0, 0, 0, 0, 0, 1, 1, 0]\nclass = metal", fillcolor="#ffffff"] ;
507 -> 508 ;
509 [label="gini = 0.5\nsamples = 2\nvalue = [0, 0, 0, 0, 1, 0, 0, 0, 1, 0]\nclass = blues", fillcolor="#ffffff"] ;
507 -> 509 ;
510 [label="loudness <= -6.432\ngini = 0.625\nsamples = 8\nvalue = [0, 0, 0, 2, 0, 0, 2, 0, 4, 0]\nclass = techno", fillcolor="#f6bdea"] ;
506 -> 510 ;
511 [label="gini = 0.0\nsamples = 1\nvalue = [0, 0, 0, 1, 0, 0, 0, 0, 0, 0]\nclass = country", fillcolor="#39e55e"] ;
510 -> 511 ;
512 [label="loudness <= -4.007\ngini = 0.571\nsamples = 7\nvalue = [0, 0, 0, 1, 0, 0, 2, 0, 4, 0]\nclass = techno", fillcolor="#f5b0e6"] ;
510 -> 512 ;
513 [label="instrumentalness <= 0.0\ngini = 0.48\nsamples = 5\nvalue = [0, 0, 0, 0, 0, 0, 2, 0, 3, 0]\nclass = techno", fillcolor="#f6bdea"] ;
512 -> 513 ;
514 [label="gini = 0.0\nsamples = 1\nvalue = [0, 0, 0, 0, 0, 0, 0, 0, 1, 0]\nclass = techno", fillcolor="#e539c0"] ;
513 -> 514 ;
515 [label="instrumentalness <= 0.001\ngini = 0.5\nsamples = 4\nvalue = [0, 0, 0, 0, 0, 0, 2, 0, 2, 0]\nclass = acoustic", fillcolor="#ffffff"] ;
513 -> 515 ;
516 [label="gini = 0.5\nsamples = 2\nvalue = [0, 0, 0, 0, 0, 0, 1, 0, 1, 0]\nclass = acoustic", fillcolor="#ffffff"] ;
515 -> 516 ;
517 [label="gini = 0.5\nsamples = 2\nvalue = [0, 0, 0, 0, 0, 0, 1, 0, 1, 0]\nclass = acoustic", fillcolor="#ffffff"] ;
515 -> 517 ;
518 [label="gini = 0.5\nsamples = 2\nvalue = [0, 0, 0, 1, 0, 0, 0, 0, 1, 0]\nclass = country", fillcolor="#ffffff"] ;
512 -> 518 ;
519 [label="gini = 0.0\nsamples = 1\nvalue = [0, 0, 0, 1, 0, 0, 0, 0, 0, 0]\nclass = country", fillcolor="#39e55e"] ;
505 -> 519 ;
520 [label="gini = 0.0\nsamples = 1\nvalue = [0, 1, 0, 0, 0, 0, 0, 0, 0, 0]\nclass = jazz", fillcolor="#e2e539"] ;
496 -> 520 ;
521 [label="instrumentalness <= 0.048\ngini = 0.722\nsamples = 13\nvalue = [0, 4, 0, 1, 0, 1, 0, 0, 2, 5]\nclass = classical", fillcolor="#fce9ec"] ;
481 -> 521 ;
522 [label="energy <= 0.637\ngini = 0.642\nsamples = 9\nvalue = [0, 1, 0, 1, 0, 1, 0, 0, 1, 5]\nclass = classical", fillcolor="#f29cab"] ;
521 -> 522 ;
523 [label="instrumentalness <= 0.011\ngini = 0.778\nsamples = 6\nvalue = [0, 1, 0, 1, 0, 1, 0, 0, 1, 2]\nclass = classical", fillcolor="#fad7de"] ;
522 -> 523 ;
524 [label="gini = 0.0\nsamples = 2\nvalue = [0, 0, 0, 0, 0, 0, 0, 0, 0, 2]\nclass = classical", fillcolor="#e53958"] ;
523 -> 524 ;
525 [label="loudness <= -9.401\ngini = 0.75\nsamples = 4\nvalue = [0, 1, 0, 1, 0, 1, 0, 0, 1, 0]\nclass = jazz", fillcolor="#ffffff"] ;
523 -> 525 ;
526 [label="gini = 0.0\nsamples = 1\nvalue = [0, 0, 0, 0, 0, 1, 0, 0, 0, 0]\nclass = pop", fillcolor="#399de5"] ;
525 -> 526 ;
527 [label="acousticness <= 0.0\ngini = 0.667\nsamples = 3\nvalue = [0, 1, 0, 1, 0, 0, 0, 0, 1, 0]\nclass = jazz", fillcolor="#ffffff"] ;
525 -> 527 ;
528 [label="gini = 0.5\nsamples = 2\nvalue = [0, 0, 0, 1, 0, 0, 0, 0, 1, 0]\nclass = country", fillcolor="#ffffff"] ;
527 -> 528 ;
529 [label="gini = 0.0\nsamples = 1\nvalue = [0, 1, 0, 0, 0, 0, 0, 0, 0, 0]\nclass = jazz", fillcolor="#e2e539"] ;
527 -> 529 ;
530 [label="gini = 0.0\nsamples = 3\nvalue = [0, 0, 0, 0, 0, 0, 0, 0, 0, 3]\nclass = classical", fillcolor="#e53958"] ;
522 -> 530 ;
531 [label="acousticness <= 0.0\ngini = 0.375\nsamples = 4\nvalue = [0, 3, 0, 0, 0, 0, 0, 0, 1, 0]\nclass = jazz", fillcolor="#ecee7b"] ;
521 -> 531 ;
532 [label="gini = 0.0\nsamples = 1\nvalue = [0, 0, 0, 0, 0, 0, 0, 0, 1, 0]\nclass = techno", fillcolor="#e539c0"] ;
531 -> 532 ;
533 [label="gini = 0.0\nsamples = 3\nvalue = [0, 3, 0, 0, 0, 0, 0, 0, 0, 0]\nclass = jazz", fillcolor="#e2e539"] ;
531 -> 533 ;
534 [label="loudness <= -6.621\ngini = 0.682\nsamples = 243\nvalue = [4, 16, 6, 3, 7, 0, 122, 30, 51, 4]\nclass = acoustic", fillcolor="#b7b6f5"] ;
480 -> 534 ;
535 [label="loudness <= -6.881\ngini = 0.748\nsamples = 21\nvalue = [1, 2, 1, 0, 0, 0, 6, 8, 2, 1]\nclass = metal", fillcolor="#f3e5fc"] ;
534 -> 535 ;
536 [label="acousticness <= 0.0\ngini = 0.781\nsamples = 16\nvalue = [1, 2, 1, 0, 0, 0, 6, 3, 2, 1]\nclass = acoustic", fillcolor="#d2d1f9"] ;
535 -> 536 ;
537 [label="loudness <= -7.824\ngini = 0.711\nsamples = 11\nvalue = [1, 2, 0, 0, 0, 0, 5, 0, 2, 1]\nclass = acoustic", fillcolor="#bebdf6"] ;
536 -> 537 ;
538 [label="energy <= 0.806\ngini = 0.625\nsamples = 4\nvalue = [0, 2, 0, 0, 0, 0, 1, 0, 0, 1]\nclass = jazz", fillcolor="#f5f6bd"] ;
537 -> 538 ;
539 [label="gini = 0.0\nsamples = 2\nvalue = [0, 2, 0, 0, 0, 0, 0, 0, 0, 0]\nclass = jazz", fillcolor="#e2e539"] ;
538 -> 539 ;
540 [label="acousticness <= 0.0\ngini = 0.5\nsamples = 2\nvalue = [0, 0, 0, 0, 0, 0, 1, 0, 0, 1]\nclass = acoustic", fillcolor="#ffffff"] ;
538 -> 540 ;
541 [label="gini = 0.0\nsamples = 1\nvalue = [0, 0, 0, 0, 0, 0, 1, 0, 0, 0]\nclass = acoustic", fillcolor="#3c39e5"] ;
540 -> 541 ;
542 [label="gini = 0.0\nsamples = 1\nvalue = [0, 0, 0, 0, 0, 0, 0, 0, 0, 1]\nclass = classical", fillcolor="#e53958"] ;
540 -> 542 ;
543 [label="instrumentalness <= 0.0\ngini = 0.571\nsamples = 7\nvalue = [1, 0, 0, 0, 0, 0, 4, 0, 2, 0]\nclass = acoustic", fillcolor="#b1b0f5"] ;
537 -> 543 ;
544 [label="gini = 0.0\nsamples = 1\nvalue = [1, 0, 0, 0, 0, 0, 0, 0, 0, 0]\nclass = rock", fillcolor="#e58139"] ;
543 -> 544 ;
545 [label="acousticness <= 0.0\ngini = 0.444\nsamples = 6\nvalue = [0, 0, 0, 0, 0, 0, 4, 0, 2, 0]\nclass = acoustic", fillcolor="#9e9cf2"] ;
543 -> 545 ;
546 [label="gini = 0.0\nsamples = 1\nvalue = [0, 0, 0, 0, 0, 0, 0, 0, 1, 0]\nclass = techno", fillcolor="#e539c0"] ;
545 -> 546 ;
547 [label="energy <= 0.781\ngini = 0.32\nsamples = 5\nvalue = [0, 0, 0, 0, 0, 0, 4, 0, 1, 0]\nclass = acoustic", fillcolor="#6d6aec"] ;
545 -> 547 ;
548 [label="gini = 0.5\nsamples = 2\nvalue = [0, 0, 0, 0, 0, 0, 1, 0, 1, 0]\nclass = acoustic", fillcolor="#ffffff"] ;
547 -> 548 ;
549 [label="gini = 0.0\nsamples = 3\nvalue = [0, 0, 0, 0, 0, 0, 3, 0, 0, 0]\nclass = acoustic", fillcolor="#3c39e5"] ;
547 -> 549 ;
550 [label="energy <= 0.767\ngini = 0.56\nsamples = 5\nvalue = [0, 0, 1, 0, 0, 0, 1, 3, 0, 0]\nclass = metal", fillcolor="#d19cf2"] ;
536 -> 550 ;
551 [label="gini = 0.0\nsamples = 1\nvalue = [0, 0, 0, 0, 0, 0, 1, 0, 0, 0]\nclass = acoustic", fillcolor="#3c39e5"] ;
550 -> 551 ;
552 [label="acousticness <= 0.001\ngini = 0.375\nsamples = 4\nvalue = [0, 0, 1, 0, 0, 0, 0, 3, 0, 0]\nclass = metal", fillcolor="#c27bee"] ;
550 -> 552 ;
553 [label="gini = 0.0\nsamples = 3\nvalue = [0, 0, 0, 0, 0, 0, 0, 3, 0, 0]\nclass = metal", fillcolor="#a339e5"] ;
552 -> 553 ;
554 [label="gini = 0.0\nsamples = 1\nvalue = [0, 0, 1, 0, 0, 0, 0, 0, 0, 0]\nclass = dance", fillcolor="#7be539"] ;
552 -> 554 ;
555 [label="gini = 0.0\nsamples = 5\nvalue = [0, 0, 0, 0, 0, 0, 0, 5, 0, 0]\nclass = metal", fillcolor="#a339e5"] ;
535 -> 555 ;
556 [label="acousticness <= 0.0\ngini = 0.662\nsamples = 222\nvalue = [3, 14, 5, 3, 7, 0, 116, 22, 49, 3]\nclass = acoustic", fillcolor="#b3b2f5"] ;
534 -> 556 ;
557 [label="energy <= 0.903\ngini = 0.548\nsamples = 83\nvalue = [0, 1, 3, 1, 1, 0, 53, 10, 14, 0]\nclass = acoustic", fillcolor="#918ff0"] ;
556 -> 557 ;
558 [label="acousticness <= 0.0\ngini = 0.516\nsamples = 79\nvalue = [0, 1, 3, 1, 1, 0, 53, 9, 11, 0]\nclass = acoustic", fillcolor="#8785ef"] ;
557 -> 558 ;
559 [label="energy <= 0.753\ngini = 0.589\nsamples = 65\nvalue = [0, 1, 3, 1, 1, 0, 39, 9, 11, 0]\nclass = acoustic", fillcolor="#9a98f2"] ;
558 -> 559 ;
560 [label="gini = 0.0\nsamples = 8\nvalue = [0, 0, 0, 0, 0, 0, 8, 0, 0, 0]\nclass = acoustic", fillcolor="#3c39e5"] ;
559 -> 560 ;
561 [label="instrumentalness <= 0.0\ngini = 0.638\nsamples = 57\nvalue = [0, 1, 3, 1, 1, 0, 31, 9, 11, 0]\nclass = acoustic", fillcolor="#aaa9f4"] ;
559 -> 561 ;
562 [label="loudness <= -4.47\ngini = 0.698\nsamples = 13\nvalue = [0, 0, 0, 0, 1, 0, 3, 5, 4, 0]\nclass = metal", fillcolor="#f5e9fc"] ;
561 -> 562 ;
563 [label="acousticness <= 0.0\ngini = 0.612\nsamples = 7\nvalue = [0, 0, 0, 0, 0, 0, 3, 1, 3, 0]\nclass = acoustic", fillcolor="#ffffff"] ;
562 -> 563 ;
564 [label="gini = 0.0\nsamples = 1\nvalue = [0, 0, 0, 0, 0, 0, 1, 0, 0, 0]\nclass = acoustic", fillcolor="#3c39e5"] ;
563 -> 564 ;
565 [label="loudness <= -5.037\ngini = 0.611\nsamples = 6\nvalue = [0, 0, 0, 0, 0, 0, 2, 1, 3, 0]\nclass = techno", fillcolor="#f8ceef"] ;
563 -> 565 ;
566 [label="loudness <= -5.793\ngini = 0.64\nsamples = 5\nvalue = [0, 0, 0, 0, 0, 0, 2, 1, 2, 0]\nclass = acoustic", fillcolor="#ffffff"] ;
565 -> 566 ;
567 [label="gini = 0.667\nsamples = 3\nvalue = [0, 0, 0, 0, 0, 0, 1, 1, 1, 0]\nclass = acoustic", fillcolor="#ffffff"] ;
566 -> 567 ;
568 [label="gini = 0.5\nsamples = 2\nvalue = [0, 0, 0, 0, 0, 0, 1, 0, 1, 0]\nclass = acoustic", fillcolor="#ffffff"] ;
566 -> 568 ;
569 [label="gini = 0.0\nsamples = 1\nvalue = [0, 0, 0, 0, 0, 0, 0, 0, 1, 0]\nclass = techno", fillcolor="#e539c0"] ;
565 -> 569 ;
570 [label="acousticness <= 0.0\ngini = 0.5\nsamples = 6\nvalue = [0, 0, 0, 0, 1, 0, 0, 4, 1, 0]\nclass = metal", fillcolor="#c888ef"] ;
562 -> 570 ;
571 [label="gini = 0.0\nsamples = 1\nvalue = [0, 0, 0, 0, 0, 0, 0, 0, 1, 0]\nclass = techno", fillcolor="#e539c0"] ;
570 -> 571 ;
572 [label="acousticness <= 0.0\ngini = 0.32\nsamples = 5\nvalue = [0, 0, 0, 0, 1, 0, 0, 4, 0, 0]\nclass = metal", fillcolor="#ba6aec"] ;
570 -> 572 ;
573 [label="gini = 0.0\nsamples = 2\nvalue = [0, 0, 0, 0, 0, 0, 0, 2, 0, 0]\nclass = metal", fillcolor="#a339e5"] ;
572 -> 573 ;
574 [label="acousticness <= 0.0\ngini = 0.444\nsamples = 3\nvalue = [0, 0, 0, 0, 1, 0, 0, 2, 0, 0]\nclass = metal", fillcolor="#d19cf2"] ;
572 -> 574 ;
575 [label="gini = 0.5\nsamples = 2\nvalue = [0, 0, 0, 0, 1, 0, 0, 1, 0, 0]\nclass = blues", fillcolor="#ffffff"] ;
574 -> 575 ;
576 [label="gini = 0.0\nsamples = 1\nvalue = [0, 0, 0, 0, 0, 0, 0, 1, 0, 0]\nclass = metal", fillcolor="#a339e5"] ;
574 -> 576 ;
577 [label="acousticness <= 0.0\ngini = 0.556\nsamples = 44\nvalue = [0, 1, 3, 1, 0, 0, 28, 4, 7, 0]\nclass = acoustic", fillcolor="#908ff0"] ;
561 -> 577 ;
578 [label="loudness <= -4.366\ngini = 0.535\nsamples = 43\nvalue = [0, 1, 3, 0, 0, 0, 28, 4, 7, 0]\nclass = acoustic", fillcolor="#8d8cf0"] ;
577 -> 578 ;
579 [label="energy <= 0.799\ngini = 0.483\nsamples = 33\nvalue = [0, 1, 1, 0, 0, 0, 23, 4, 4, 0]\nclass = acoustic", fillcolor="#7f7dee"] ;
578 -> 579 ;
580 [label="gini = 0.0\nsamples = 1\nvalue = [0, 0, 1, 0, 0, 0, 0, 0, 0, 0]\nclass = dance", fillcolor="#7be539"] ;
579 -> 580 ;
581 [label="acousticness <= 0.0\ngini = 0.451\nsamples = 32\nvalue = [0, 1, 0, 0, 0, 0, 23, 4, 4, 0]\nclass = acoustic", fillcolor="#7b79ed"] ;
579 -> 581 ;
582 [label="gini = 0.0\nsamples = 1\nvalue = [0, 0, 0, 0, 0, 0, 0, 1, 0, 0]\nclass = metal", fillcolor="#a339e5"] ;
581 -> 582 ;
583 [label="instrumentalness <= 0.0\ngini = 0.422\nsamples = 31\nvalue = [0, 1, 0, 0, 0, 0, 23, 3, 4, 0]\nclass = acoustic", fillcolor="#7674ed"] ;
581 -> 583 ;
584 [label="loudness <= -5.022\ngini = 0.582\nsamples = 14\nvalue = [0, 0, 0, 0, 0, 0, 8, 3, 3, 0]\nclass = acoustic", fillcolor="#a6a5f3"] ;
583 -> 584 ;
585 [label="instrumentalness <= 0.0\ngini = 0.656\nsamples = 8\nvalue = [0, 0, 0, 0, 0, 0, 2, 3, 3, 0]\nclass = metal", fillcolor="#ffffff"] ;
584 -> 585 ;
586 [label="gini = 0.0\nsamples = 1\nvalue = [0, 0, 0, 0, 0, 0, 1, 0, 0, 0]\nclass = acoustic", fillcolor="#3c39e5"] ;
585 -> 586 ;
587 [label="energy <= 0.879\ngini = 0.612\nsamples = 7\nvalue = [0, 0, 0, 0, 0, 0, 1, 3, 3, 0]\nclass = metal", fillcolor="#ffffff"] ;
585 -> 587 ;
588 [label="energy <= 0.845\ngini = 0.611\nsamples = 6\nvalue = [0, 0, 0, 0, 0, 0, 1, 3, 2, 0]\nclass = metal", fillcolor="#e8cef8"] ;
587 -> 588 ;
589 [label="gini = 0.667\nsamples = 3\nvalue = [0, 0, 0, 0, 0, 0, 1, 1, 1, 0]\nclass = acoustic", fillcolor="#ffffff"] ;
588 -> 589 ;
590 [label="gini = 0.444\nsamples = 3\nvalue = [0, 0, 0, 0, 0, 0, 0, 2, 1, 0]\nclass = metal", fillcolor="#d19cf2"] ;
588 -> 590 ;
591 [label="gini = 0.0\nsamples = 1\nvalue = [0, 0, 0, 0, 0, 0, 0, 0, 1, 0]\nclass = techno", fillcolor="#e539c0"] ;
587 -> 591 ;
592 [label="gini = 0.0\nsamples = 6\nvalue = [0, 0, 0, 0, 0, 0, 6, 0, 0, 0]\nclass = acoustic", fillcolor="#3c39e5"] ;
584 -> 592 ;
593 [label="loudness <= -4.686\ngini = 0.215\nsamples = 17\nvalue = [0, 1, 0, 0, 0, 0, 15, 0, 1, 0]\nclass = acoustic", fillcolor="#5452e8"] ;
583 -> 593 ;
594 [label="gini = 0.0\nsamples = 12\nvalue = [0, 0, 0, 0, 0, 0, 12, 0, 0, 0]\nclass = acoustic", fillcolor="#3c39e5"] ;
593 -> 594 ;
595 [label="instrumentalness <= 0.08\ngini = 0.56\nsamples = 5\nvalue = [0, 1, 0, 0, 0, 0, 3, 0, 1, 0]\nclass = acoustic", fillcolor="#9e9cf2"] ;
593 -> 595 ;
596 [label="gini = 0.0\nsamples = 1\nvalue = [0, 1, 0, 0, 0, 0, 0, 0, 0, 0]\nclass = jazz", fillcolor="#e2e539"] ;
595 -> 596 ;
597 [label="loudness <= -4.632\ngini = 0.375\nsamples = 4\nvalue = [0, 0, 0, 0, 0, 0, 3, 0, 1, 0]\nclass = acoustic", fillcolor="#7d7bee"] ;
595 -> 597 ;
598 [label="gini = 0.5\nsamples = 2\nvalue = [0, 0, 0, 0, 0, 0, 1, 0, 1, 0]\nclass = acoustic", fillcolor="#ffffff"] ;
597 -> 598 ;
599 [label="gini = 0.0\nsamples = 2\nvalue = [0, 0, 0, 0, 0, 0, 2, 0, 0, 0]\nclass = acoustic", fillcolor="#3c39e5"] ;
597 -> 599 ;
600 [label="loudness <= -3.501\ngini = 0.62\nsamples = 10\nvalue = [0, 0, 2, 0, 0, 0, 5, 0, 3, 0]\nclass = acoustic", fillcolor="#c7c6f8"] ;
578 -> 600 ;
601 [label="acousticness <= 0.0\ngini = 0.64\nsamples = 5\nvalue = [0, 0, 2, 0, 0, 0, 1, 0, 2, 0]\nclass = dance", fillcolor="#ffffff"] ;
600 -> 601 ;
602 [label="acousticness <= 0.0\ngini = 0.444\nsamples = 3\nvalue = [0, 0, 0, 0, 0, 0, 1, 0, 2, 0]\nclass = techno", fillcolor="#f29ce0"] ;
601 -> 602 ;
603 [label="gini = 0.0\nsamples = 1\nvalue = [0, 0, 0, 0, 0, 0, 0, 0, 1, 0]\nclass = techno", fillcolor="#e539c0"] ;
602 -> 603 ;
604 [label="gini = 0.5\nsamples = 2\nvalue = [0, 0, 0, 0, 0, 0, 1, 0, 1, 0]\nclass = acoustic", fillcolor="#ffffff"] ;
602 -> 604 ;
605 [label="gini = 0.0\nsamples = 2\nvalue = [0, 0, 2, 0, 0, 0, 0, 0, 0, 0]\nclass = dance", fillcolor="#7be539"] ;
601 -> 605 ;
606 [label="energy <= 0.877\ngini = 0.32\nsamples = 5\nvalue = [0, 0, 0, 0, 0, 0, 4, 0, 1, 0]\nclass = acoustic", fillcolor="#6d6aec"] ;
600 -> 606 ;
607 [label="gini = 0.0\nsamples = 3\nvalue = [0, 0, 0, 0, 0, 0, 3, 0, 0, 0]\nclass = acoustic", fillcolor="#3c39e5"] ;
606 -> 607 ;
608 [label="gini = 0.5\nsamples = 2\nvalue = [0, 0, 0, 0, 0, 0, 1, 0, 1, 0]\nclass = acoustic", fillcolor="#ffffff"] ;
606 -> 608 ;
609 [label="gini = 0.0\nsamples = 1\nvalue = [0, 0, 0, 1, 0, 0, 0, 0, 0, 0]\nclass = country", fillcolor="#39e55e"] ;
577 -> 609 ;
610 [label="gini = 0.0\nsamples = 14\nvalue = [0, 0, 0, 0, 0, 0, 14, 0, 0, 0]\nclass = acoustic", fillcolor="#3c39e5"] ;
558 -> 610 ;
611 [label="loudness <= -4.031\ngini = 0.375\nsamples = 4\nvalue = [0, 0, 0, 0, 0, 0, 0, 1, 3, 0]\nclass = techno", fillcolor="#ee7bd5"] ;
557 -> 611 ;
612 [label="gini = 0.0\nsamples = 2\nvalue = [0, 0, 0, 0, 0, 0, 0, 0, 2, 0]\nclass = techno", fillcolor="#e539c0"] ;
611 -> 612 ;
613 [label="gini = 0.5\nsamples = 2\nvalue = [0, 0, 0, 0, 0, 0, 0, 1, 1, 0]\nclass = metal", fillcolor="#ffffff"] ;
611 -> 613 ;
614 [label="energy <= 0.808\ngini = 0.712\nsamples = 139\nvalue = [3, 13, 2, 2, 6, 0, 63, 12, 35, 3]\nclass = acoustic", fillcolor="#cacaf8"] ;
556 -> 614 ;
615 [label="energy <= 0.798\ngini = 0.769\nsamples = 26\nvalue = [2, 7, 0, 1, 2, 0, 9, 1, 4, 0]\nclass = acoustic", fillcolor="#eaeafc"] ;
614 -> 615 ;
616 [label="loudness <= -5.325\ngini = 0.748\nsamples = 22\nvalue = [2, 4, 0, 0, 2, 0, 9, 1, 4, 0]\nclass = acoustic", fillcolor="#c9c8f8"] ;
615 -> 616 ;
617 [label="energy <= 0.769\ngini = 0.812\nsamples = 8\nvalue = [2, 2, 0, 0, 1, 0, 1, 1, 1, 0]\nclass = rock", fillcolor="#ffffff"] ;
616 -> 617 ;
618 [label="loudness <= -6.246\ngini = 0.72\nsamples = 5\nvalue = [0, 2, 0, 0, 0, 0, 1, 1, 1, 0]\nclass = jazz", fillcolor="#f8f8ce"] ;
617 -> 618 ;
619 [label="loudness <= -6.395\ngini = 0.5\nsamples = 2\nvalue = [0, 0, 0, 0, 0, 0, 1, 0, 1, 0]\nclass = acoustic", fillcolor="#ffffff"] ;
618 -> 619 ;
620 [label="gini = 0.0\nsamples = 1\nvalue = [0, 0, 0, 0, 0, 0, 0, 0, 1, 0]\nclass = techno", fillcolor="#e539c0"] ;
619 -> 620 ;
621 [label="gini = 0.0\nsamples = 1\nvalue = [0, 0, 0, 0, 0, 0, 1, 0, 0, 0]\nclass = acoustic", fillcolor="#3c39e5"] ;
619 -> 621 ;
622 [label="loudness <= -5.673\ngini = 0.444\nsamples = 3\nvalue = [0, 2, 0, 0, 0, 0, 0, 1, 0, 0]\nclass = jazz", fillcolor="#f0f29c"] ;
618 -> 622 ;
623 [label="gini = 0.0\nsamples = 2\nvalue = [0, 2, 0, 0, 0, 0, 0, 0, 0, 0]\nclass = jazz", fillcolor="#e2e539"] ;
622 -> 623 ;
624 [label="gini = 0.0\nsamples = 1\nvalue = [0, 0, 0, 0, 0, 0, 0, 1, 0, 0]\nclass = metal", fillcolor="#a339e5"] ;
622 -> 624 ;
625 [label="loudness <= -6.346\ngini = 0.444\nsamples = 3\nvalue = [2, 0, 0, 0, 1, 0, 0, 0, 0, 0]\nclass = rock", fillcolor="#f2c09c"] ;
617 -> 625 ;
626 [label="gini = 0.0\nsamples = 1\nvalue = [0, 0, 0, 0, 1, 0, 0, 0, 0, 0]\nclass = blues", fillcolor="#39e5c5"] ;
625 -> 626 ;
627 [label="gini = 0.0\nsamples = 2\nvalue = [2, 0, 0, 0, 0, 0, 0, 0, 0, 0]\nclass = rock", fillcolor="#e58139"] ;
625 -> 627 ;
628 [label="acousticness <= 0.001\ngini = 0.602\nsamples = 14\nvalue = [0, 2, 0, 0, 1, 0, 8, 0, 3, 0]\nclass = acoustic", fillcolor="#a6a5f3"] ;
616 -> 628 ;
629 [label="loudness <= -5.048\ngini = 0.544\nsamples = 13\nvalue = [0, 2, 0, 0, 0, 0, 8, 0, 3, 0]\nclass = acoustic", fillcolor="#9d9cf2"] ;
628 -> 629 ;
630 [label="loudness <= -5.118\ngini = 0.5\nsamples = 4\nvalue = [0, 0, 0, 0, 0, 0, 2, 0, 2, 0]\nclass = acoustic", fillcolor="#ffffff"] ;
629 -> 630 ;
631 [label="gini = 0.5\nsamples = 2\nvalue = [0, 0, 0, 0, 0, 0, 1, 0, 1, 0]\nclass = acoustic", fillcolor="#ffffff"] ;
630 -> 631 ;
632 [label="gini = 0.5\nsamples = 2\nvalue = [0, 0, 0, 0, 0, 0, 1, 0, 1, 0]\nclass = acoustic", fillcolor="#ffffff"] ;
630 -> 632 ;
633 [label="energy <= 0.785\ngini = 0.494\nsamples = 9\nvalue = [0, 2, 0, 0, 0, 0, 6, 0, 1, 0]\nclass = acoustic", fillcolor="#908ef0"] ;
629 -> 633 ;
634 [label="energy <= 0.77\ngini = 0.611\nsamples = 6\nvalue = [0, 2, 0, 0, 0, 0, 3, 0, 1, 0]\nclass = acoustic", fillcolor="#cecef8"] ;
633 -> 634 ;
635 [label="instrumentalness <= 0.0\ngini = 0.375\nsamples = 4\nvalue = [0, 0, 0, 0, 0, 0, 3, 0, 1, 0]\nclass = acoustic", fillcolor="#7d7bee"] ;
634 -> 635 ;
636 [label="acousticness <= 0.001\ngini = 0.5\nsamples = 2\nvalue = [0, 0, 0, 0, 0, 0, 1, 0, 1, 0]\nclass = acoustic", fillcolor="#ffffff"] ;
635 -> 636 ;
637 [label="gini = 0.0\nsamples = 1\nvalue = [0, 0, 0, 0, 0, 0, 0, 0, 1, 0]\nclass = techno", fillcolor="#e539c0"] ;
636 -> 637 ;
638 [label="gini = 0.0\nsamples = 1\nvalue = [0, 0, 0, 0, 0, 0, 1, 0, 0, 0]\nclass = acoustic", fillcolor="#3c39e5"] ;
636 -> 638 ;
639 [label="gini = 0.0\nsamples = 2\nvalue = [0, 0, 0, 0, 0, 0, 2, 0, 0, 0]\nclass = acoustic", fillcolor="#3c39e5"] ;
635 -> 639 ;
640 [label="gini = 0.0\nsamples = 2\nvalue = [0, 2, 0, 0, 0, 0, 0, 0, 0, 0]\nclass = jazz", fillcolor="#e2e539"] ;
634 -> 640 ;
641 [label="gini = 0.0\nsamples = 3\nvalue = [0, 0, 0, 0, 0, 0, 3, 0, 0, 0]\nclass = acoustic", fillcolor="#3c39e5"] ;
633 -> 641 ;
642 [label="gini = 0.0\nsamples = 1\nvalue = [0, 0, 0, 0, 1, 0, 0, 0, 0, 0]\nclass = blues", fillcolor="#39e5c5"] ;
628 -> 642 ;
643 [label="instrumentalness <= 0.0\ngini = 0.375\nsamples = 4\nvalue = [0, 3, 0, 1, 0, 0, 0, 0, 0, 0]\nclass = jazz", fillcolor="#ecee7b"] ;
615 -> 643 ;
644 [label="gini = 0.0\nsamples = 1\nvalue = [0, 0, 0, 1, 0, 0, 0, 0, 0, 0]\nclass = country", fillcolor="#39e55e"] ;
643 -> 644 ;
645 [label="gini = 0.0\nsamples = 3\nvalue = [0, 3, 0, 0, 0, 0, 0, 0, 0, 0]\nclass = jazz", fillcolor="#e2e539"] ;
643 -> 645 ;
646 [label="instrumentalness <= 0.0\ngini = 0.682\nsamples = 113\nvalue = [1, 6, 2, 1, 4, 0, 54, 11, 31, 3]\nclass = acoustic", fillcolor="#c8c7f8"] ;
614 -> 646 ;
647 [label="acousticness <= 0.001\ngini = 0.725\nsamples = 76\nvalue = [1, 5, 2, 0, 3, 0, 31, 10, 22, 2]\nclass = acoustic", fillcolor="#dedefb"] ;
646 -> 647 ;
648 [label="instrumentalness <= 0.0\ngini = 0.744\nsamples = 66\nvalue = [1, 5, 1, 0, 3, 0, 24, 10, 20, 2]\nclass = acoustic", fillcolor="#eeeefd"] ;
647 -> 648 ;
649 [label="loudness <= -4.399\ngini = 0.741\nsamples = 58\nvalue = [1, 5, 1, 0, 3, 0, 23, 9, 15, 1]\nclass = acoustic", fillcolor="#dbdafa"] ;
648 -> 649 ;
650 [label="instrumentalness <= 0.0\ngini = 0.747\nsamples = 30\nvalue = [1, 2, 0, 0, 1, 0, 8, 6, 11, 1]\nclass = techno", fillcolor="#fbe4f6"] ;
649 -> 650 ;
651 [label="energy <= 0.895\ngini = 0.688\nsamples = 25\nvalue = [0, 1, 0, 0, 1, 0, 6, 6, 11, 0]\nclass = techno", fillcolor="#f8cbee"] ;
650 -> 651 ;
652 [label="loudness <= -6.108\ngini = 0.682\nsamples = 22\nvalue = [0, 1, 0, 0, 1, 0, 4, 6, 10, 0]\nclass = techno", fillcolor="#f8ceef"] ;
651 -> 652 ;
653 [label="gini = 0.0\nsamples = 1\nvalue = [0, 0, 0, 0, 0, 0, 1, 0, 0, 0]\nclass = acoustic", fillcolor="#3c39e5"] ;
652 -> 653 ;
654 [label="energy <= 0.885\ngini = 0.667\nsamples = 21\nvalue = [0, 1, 0, 0, 1, 0, 3, 6, 10, 0]\nclass = techno", fillcolor="#f8caee"] ;
652 -> 654 ;
655 [label="instrumentalness <= 0.0\ngini = 0.653\nsamples = 14\nvalue = [0, 0, 0, 0, 1, 0, 3, 3, 7, 0]\nclass = techno", fillcolor="#f6b7e8"] ;
654 -> 655 ;
656 [label="acousticness <= 0.0\ngini = 0.694\nsamples = 12\nvalue = [0, 0, 0, 0, 1, 0, 3, 3, 5, 0]\nclass = techno", fillcolor="#f9d3f1"] ;
655 -> 656 ;
657 [label="acousticness <= 0.0\ngini = 0.722\nsamples = 6\nvalue = [0, 0, 0, 0, 1, 0, 2, 2, 1, 0]\nclass = acoustic", fillcolor="#ffffff"] ;
656 -> 657 ;
658 [label="gini = 0.667\nsamples = 3\nvalue = [0, 0, 0, 0, 0, 0, 1, 1, 1, 0]\nclass = acoustic", fillcolor="#ffffff"] ;
657 -> 658 ;
659 [label="acousticness <= 0.0\ngini = 0.667\nsamples = 3\nvalue = [0, 0, 0, 0, 1, 0, 1, 1, 0, 0]\nclass = blues", fillcolor="#ffffff"] ;
657 -> 659 ;
660 [label="gini = 0.0\nsamples = 1\nvalue = [0, 0, 0, 0, 1, 0, 0, 0, 0, 0]\nclass = blues", fillcolor="#39e5c5"] ;
659 -> 660 ;
661 [label="gini = 0.5\nsamples = 2\nvalue = [0, 0, 0, 0, 0, 0, 1, 1, 0, 0]\nclass = acoustic", fillcolor="#ffffff"] ;
659 -> 661 ;
662 [label="loudness <= -5.275\ngini = 0.5\nsamples = 6\nvalue = [0, 0, 0, 0, 0, 0, 1, 1, 4, 0]\nclass = techno", fillcolor="#ef88d9"] ;
656 -> 662 ;
663 [label="gini = 0.5\nsamples = 2\nvalue = [0, 0, 0, 0, 0, 0, 0, 1, 1, 0]\nclass = metal", fillcolor="#ffffff"] ;
662 -> 663 ;
664 [label="acousticness <= 0.0\ngini = 0.375\nsamples = 4\nvalue = [0, 0, 0, 0, 0, 0, 1, 0, 3, 0]\nclass = techno", fillcolor="#ee7bd5"] ;
662 -> 664 ;
665 [label="gini = 0.0\nsamples = 2\nvalue = [0, 0, 0, 0, 0, 0, 0, 0, 2, 0]\nclass = techno", fillcolor="#e539c0"] ;
664 -> 665 ;
666 [label="gini = 0.5\nsamples = 2\nvalue = [0, 0, 0, 0, 0, 0, 1, 0, 1, 0]\nclass = acoustic", fillcolor="#ffffff"] ;
664 -> 666 ;
667 [label="gini = 0.0\nsamples = 2\nvalue = [0, 0, 0, 0, 0, 0, 0, 0, 2, 0]\nclass = techno", fillcolor="#e539c0"] ;
655 -> 667 ;
668 [label="acousticness <= 0.0\ngini = 0.612\nsamples = 7\nvalue = [0, 1, 0, 0, 0, 0, 0, 3, 3, 0]\nclass = metal", fillcolor="#ffffff"] ;
654 -> 668 ;
669 [label="acousticness <= 0.0\ngini = 0.667\nsamples = 3\nvalue = [0, 1, 0, 0, 0, 0, 0, 1, 1, 0]\nclass = jazz", fillcolor="#ffffff"] ;
668 -> 669 ;
670 [label="gini = 0.5\nsamples = 2\nvalue = [0, 0, 0, 0, 0, 0, 0, 1, 1, 0]\nclass = metal", fillcolor="#ffffff"] ;
669 -> 670 ;
671 [label="gini = 0.0\nsamples = 1\nvalue = [0, 1, 0, 0, 0, 0, 0, 0, 0, 0]\nclass = jazz", fillcolor="#e2e539"] ;
669 -> 671 ;
672 [label="instrumentalness <= 0.0\ngini = 0.5\nsamples = 4\nvalue = [0, 0, 0, 0, 0, 0, 0, 2, 2, 0]\nclass = metal", fillcolor="#ffffff"] ;
668 -> 672 ;
673 [label="gini = 0.5\nsamples = 2\nvalue = [0, 0, 0, 0, 0, 0, 0, 1, 1, 0]\nclass = metal", fillcolor="#ffffff"] ;
672 -> 673 ;
674 [label="gini = 0.5\nsamples = 2\nvalue = [0, 0, 0, 0, 0, 0, 0, 1, 1, 0]\nclass = metal", fillcolor="#ffffff"] ;
672 -> 674 ;
675 [label="instrumentalness <= 0.0\ngini = 0.444\nsamples = 3\nvalue = [0, 0, 0, 0, 0, 0, 2, 0, 1, 0]\nclass = acoustic", fillcolor="#9e9cf2"] ;
651 -> 675 ;
676 [label="gini = 0.0\nsamples = 1\nvalue = [0, 0, 0, 0, 0, 0, 1, 0, 0, 0]\nclass = acoustic", fillcolor="#3c39e5"] ;
675 -> 676 ;
677 [label="gini = 0.5\nsamples = 2\nvalue = [0, 0, 0, 0, 0, 0, 1, 0, 1, 0]\nclass = acoustic", fillcolor="#ffffff"] ;
675 -> 677 ;
678 [label="acousticness <= 0.0\ngini = 0.72\nsamples = 5\nvalue = [1, 1, 0, 0, 0, 0, 2, 0, 0, 1]\nclass = acoustic", fillcolor="#cecef8"] ;
650 -> 678 ;
679 [label="loudness <= -5.751\ngini = 0.667\nsamples = 3\nvalue = [1, 1, 0, 0, 0, 0, 0, 0, 0, 1]\nclass = rock", fillcolor="#ffffff"] ;
678 -> 679 ;
680 [label="gini = 0.0\nsamples = 1\nvalue = [0, 0, 0, 0, 0, 0, 0, 0, 0, 1]\nclass = classical", fillcolor="#e53958"] ;
679 -> 680 ;
681 [label="instrumentalness <= 0.0\ngini = 0.5\nsamples = 2\nvalue = [1, 1, 0, 0, 0, 0, 0, 0, 0, 0]\nclass = rock", fillcolor="#ffffff"] ;
679 -> 681 ;
682 [label="gini = 0.0\nsamples = 1\nvalue = [1, 0, 0, 0, 0, 0, 0, 0, 0, 0]\nclass = rock", fillcolor="#e58139"] ;
681 -> 682 ;
683 [label="gini = 0.0\nsamples = 1\nvalue = [0, 1, 0, 0, 0, 0, 0, 0, 0, 0]\nclass = jazz", fillcolor="#e2e539"] ;
681 -> 683 ;
684 [label="gini = 0.0\nsamples = 2\nvalue = [0, 0, 0, 0, 0, 0, 2, 0, 0, 0]\nclass = acoustic", fillcolor="#3c39e5"] ;
678 -> 684 ;
685 [label="instrumentalness <= 0.0\ngini = 0.663\nsamples = 28\nvalue = [0, 3, 1, 0, 2, 0, 15, 3, 4, 0]\nclass = acoustic", fillcolor="#a6a4f3"] ;
649 -> 685 ;
686 [label="acousticness <= 0.0\ngini = 0.522\nsamples = 21\nvalue = [0, 2, 0, 0, 1, 0, 14, 1, 3, 0]\nclass = acoustic", fillcolor="#8886ef"] ;
685 -> 686 ;
687 [label="gini = 0.0\nsamples = 1\nvalue = [0, 0, 0, 0, 0, 0, 0, 0, 1, 0]\nclass = techno", fillcolor="#e539c0"] ;
686 -> 687 ;
688 [label="acousticness <= 0.0\ngini = 0.485\nsamples = 20\nvalue = [0, 2, 0, 0, 1, 0, 14, 1, 2, 0]\nclass = acoustic", fillcolor="#7d7bee"] ;
686 -> 688 ;
689 [label="gini = 0.0\nsamples = 7\nvalue = [0, 0, 0, 0, 0, 0, 7, 0, 0, 0]\nclass = acoustic", fillcolor="#3c39e5"] ;
688 -> 689 ;
690 [label="loudness <= -3.107\ngini = 0.651\nsamples = 13\nvalue = [0, 2, 0, 0, 1, 0, 7, 1, 2, 0]\nclass = acoustic", fillcolor="#a6a5f3"] ;
688 -> 690 ;
691 [label="acousticness <= 0.0\ngini = 0.529\nsamples = 11\nvalue = [0, 2, 0, 0, 0, 0, 7, 0, 2, 0]\nclass = acoustic", fillcolor="#9391f1"] ;
690 -> 691 ;
692 [label="gini = 0.0\nsamples = 3\nvalue = [0, 0, 0, 0, 0, 0, 3, 0, 0, 0]\nclass = acoustic", fillcolor="#3c39e5"] ;
691 -> 692 ;
693 [label="acousticness <= 0.0\ngini = 0.625\nsamples = 8\nvalue = [0, 2, 0, 0, 0, 0, 4, 0, 2, 0]\nclass = acoustic", fillcolor="#bebdf6"] ;
691 -> 693 ;
694 [label="gini = 0.0\nsamples = 2\nvalue = [0, 2, 0, 0, 0, 0, 0, 0, 0, 0]\nclass = jazz", fillcolor="#e2e539"] ;
693 -> 694 ;
695 [label="energy <= 0.887\ngini = 0.444\nsamples = 6\nvalue = [0, 0, 0, 0, 0, 0, 4, 0, 2, 0]\nclass = acoustic", fillcolor="#9e9cf2"] ;
693 -> 695 ;
696 [label="acousticness <= 0.0\ngini = 0.5\nsamples = 4\nvalue = [0, 0, 0, 0, 0, 0, 2, 0, 2, 0]\nclass = acoustic", fillcolor="#ffffff"] ;
695 -> 696 ;
697 [label="gini = 0.5\nsamples = 2\nvalue = [0, 0, 0, 0, 0, 0, 1, 0, 1, 0]\nclass = acoustic", fillcolor="#ffffff"] ;
696 -> 697 ;
698 [label="gini = 0.5\nsamples = 2\nvalue = [0, 0, 0, 0, 0, 0, 1, 0, 1, 0]\nclass = acoustic", fillcolor="#ffffff"] ;
696 -> 698 ;
699 [label="gini = 0.0\nsamples = 2\nvalue = [0, 0, 0, 0, 0, 0, 2, 0, 0, 0]\nclass = acoustic", fillcolor="#3c39e5"] ;
695 -> 699 ;
700 [label="gini = 0.5\nsamples = 2\nvalue = [0, 0, 0, 0, 1, 0, 0, 1, 0, 0]\nclass = blues", fillcolor="#ffffff"] ;
690 -> 700 ;
701 [label="acousticness <= 0.0\ngini = 0.816\nsamples = 7\nvalue = [0, 1, 1, 0, 1, 0, 1, 2, 1, 0]\nclass = metal", fillcolor="#f0defb"] ;
685 -> 701 ;
702 [label="loudness <= -3.676\ngini = 0.5\nsamples = 2\nvalue = [0, 1, 0, 0, 0, 0, 1, 0, 0, 0]\nclass = jazz", fillcolor="#ffffff"] ;
701 -> 702 ;
703 [label="gini = 0.0\nsamples = 1\nvalue = [0, 0, 0, 0, 0, 0, 1, 0, 0, 0]\nclass = acoustic", fillcolor="#3c39e5"] ;
702 -> 703 ;
704 [label="gini = 0.0\nsamples = 1\nvalue = [0, 1, 0, 0, 0, 0, 0, 0, 0, 0]\nclass = jazz", fillcolor="#e2e539"] ;
702 -> 704 ;
705 [label="loudness <= -4.131\ngini = 0.72\nsamples = 5\nvalue = [0, 0, 1, 0, 1, 0, 0, 2, 1, 0]\nclass = metal", fillcolor="#e8cef8"] ;
701 -> 705 ;
